svm_type c_svc
kernel_type linear
nr_class 2
total_sv 31
rho -0.033419815978292626
label 1 2
nr_sv 15 16
SV
0.00089005009962378088 1:-0.47726047 2:0.47518531 3:1.1887734 4:-1.3480738 5:-0.0066601086 6:-0.042810156 7:-0.78198335 8:-0.78814601 9:-0.74893347 10:-0.46574836 11:-0.075142795 12:-0.92343724 13:-0.18247439 14:-1.289635 15:0.9109565 16:-0.97848161 17:-1.3223506 18:0.23683354 19:0.19713864 20:2.1565457 21:-0.58548763 22:-0.15504119 23:-1.1026659 24:-1.1639174 25:-0.63048651 26:-0.67879556 27:0.3292665 28:0.21005522 29:0.58958288 30:-0.13918067 31:-0.50307827 32:-0.61273864 33:-0.60064351 34:-0.74249194 35:-0.41206062 36:0.37670431 37:-0.80258565 38:0.66718666 39:0.83164205 40:-1.1330357 41:-0.50024336 42:0.27485784 43:-0.79915292 44:-0.63290095 45:0.29776312 46:0.94222541 47:-1.0571124 48:1.6321289 49:-0.31865488 50:1.8108634 51:0.50262098 52:0.15728314 53:0.49142947 54:-0.41528762 55:-0.27930948 56:-0.91224457 57:-0.2730484 58:1.3758877 59:-0.89185254 60:0.15571521 61:0.37774304 62:-0.8535859 63:-0.75358569 64:-0.9120039 65:0.83783885 66:-0.36300042 67:0.21058454 68:1.4354766 69:0.56767563 70:-0.33928051 71:0.98125576 72:-0.24617417 73:0.050789636 74:-0.63708798 75:-0.16564567 76:0.29095466 77:-0.38334998 78:0.8387413 79:-0.49923309 80:-0.60147211 81:-0.41061536 82:-0.53317864 83:-0.62200912 84:-1.1383814 85:-0.15499248 86:-0.71175833 87:-0.11761841 88:-0.28844612 89:0.70507768 90:1.083998 91:-1.1888407 92:-1.5519275 93:0.54928144 94:-2.0282946 95:0.06903253 96:-1.4383014 97:-0.12747709 98:-0.4178577 99:-0.16157558 100:-0.095973451 101:1.2201971 102:0.39561577 103:1.629992 104:1.0843689 105:-0.51261084 106:-0.28778881 107:0.67036632 108:-0.093115086 109:2.0714975 110:-0.76138057 111:0.4737632 112:0.12424797 113:0.23975061 114:0.63726239 115:-0.68468338 116:0.35736357 117:0.2742466 118:-1.2925718 119:-0.35567165 120:-0.37400777 121:-0.068818466 122:-0.4889443 123:0.43673793 124:-0.85788773 125:-0.64046242 126:0.33374443 127:1.1117812 128:-0.66369384 129:-0.38658821 130:0.59982009 131:-0.55802971 132:-1.2739441 133:0.57124049 134:-0.46319301 135:-1.3372677 136:-1.8327684 137:1.2321089 138:-0.86313773 139:0.40639017 140:-0.40866712 141:-0.68908849 142:-0.98656739 143:0.12341311 144:-0.34076618 145:-0.71095461 146:-0.40327185 147:-0.12923077 148:-0.06702992 149:0.78246681 150:0.28103425 151:-0.69203081 152:0.48461035 153:-0.50381739 154:-1.0668428 155:1.9065558 156:-1.3739782 157:-1.0374175 158:-0.26060633 159:-1.2674498 160:0.62146629 161:-0.64336356 162:-0.47066123 163:0.055169334 164:-0.64061373 165:0.90742616 166:-0.61671908 167:-1.1308165 168:1.3074869 169:-0.46475774 170:0.62149009 171:0.3880603 172:0.55559395 173:-0.7271627 174:-0.50159167 175:-0.16845324 176:-0.49565262 177:0.56088005 178:0.61937813 179:0.11853138 180:-0.32647751 181:-0.047480948 182:0.39626673 183:0.70831579 184:0.26995168 185:0.9379978 186:-0.69169657 187:-0.016228671 188:-0.081099594 189:0.64070376 190:-1.3035726 191:0.035773104 192:0.080405206 193:-1.1778904 194:0.33146617 195:-0.79845357 196:-0.28255454 197:-0.44933166 198:0.58354915 199:1.6366912 200:-0.51343231 201:-0.67411229 202:0.25957386 203:0.41380529 204:-0.21374258 205:0.65237976 206:-0.8999632 207:-0.80645626 208:1.3762 209:-0.56526203 210:1.1803077 211:0.65841782 212:-0.82326778 213:-0.02891499 214:1.8292914 215:0.14240126 216:0.50694697 217:0.45775015 218:-1.1937253 219:0.39572779 220:0.068292134 221:-0.24835705 222:0.40924005 223:-0.23895503 224:0.41652283 225:-0.52721433 226:-0.032938504 227:0.31694173 228:-0.52877347 229:-0.46461134 230:0.17707669 231:-0.33155565 232:0.12695897 233:1.0409613 234:-0.67027931 235:-1.4384452 236:1.7656978 237:0.23361424 238:0.54139684 239:-1.0303943 240:-0.48970193 241:-0.87014049 242:0.29016233 243:0.50025629 244:1.2285211 245:-0.33915625 246:1.1483438 247:0.085405174 248:-0.53296418 249:0.66578567 250:0.16255113 251:-0.47931525 
0.00051890926598319599 1:0.23506958 2:0.17322768 3:-0.35377637 4:-0.98295124 5:0.57130199 6:-1.2376476 7:-0.23838424 8:0.72157249 9:-1.0760389 10:-0.0070754843 11:0.0016588454 12:1.0286312 13:0.85223125 14:0.99178962 15:0.34826067 16:-1.6071299 17:-0.043837935 18:0.79547684 19:0.41596592 20:-0.67974924 21:-1.4119452 22:-1.6290877 23:0.089861416 24:-1.358404 25:-0.10401058 26:-0.52845305 27:0.14274113 28:-0.54217961 29:0.18028041 30:0.13031642 31:0.65065859 32:-0.40299406 33:1.647704 34:-0.099408591 35:-0.67558518 36:2.0147428 37:0.56505403 38:-0.783881 39:-0.97891968 40:-0.67109498 41:-0.04059981 42:0.32157833 43:0.66536365 44:-0.41310172 45:-0.025652844 46:-1.5760968 47:-0.34770625 48:-0.72054962 49:0.13089288 50:-0.12003189 51:-0.523595 52:-0.072776776 53:-1.0282009 54:-0.96873354 55:-0.61925606 56:-0.65055371 57:1.038444 58:1.2267312 59:-0.40629149 60:0.9072095 61:0.95435149 62:0.10909353 63:0.48881357 64:-1.3054221 65:-0.99809746 66:-0.8256782 67:0.98936878 68:-0.58761115 69:-1.0102063 70:-1.0650185 71:-0.27677813 72:-0.11957376 73:-0.22675817 74:-1.0672594 75:-1.1439269 76:0.67931134 77:-1.3729794 78:-0.13390662 79:-1.3165001 80:0.92384774 81:0.84053821 82:-0.77761306 83:-0.61704033 84:-1.301363 85:-0.35476033 86:1.2190206 87:-0.49978317 88:-0.15395556 89:-1.0997822 90:-1.8620093 91:1.1339187 92:0.89431509 93:1.5040628 94:0.37191908 95:-0.66715988 96:1.2610006 97:-0.59865694 98:-1.3024072 99:-0.43019948 100:-1.8076067 101:-0.70734553 102:-0.79400196 103:-1.2498095 104:-0.75248601 105:-1.3883748 106:-0.8766237 107:0.059578974 108:-0.65925286 109:-0.4973293 110:0.44369646 111:-1.3305072 112:-0.94043387 113:-0.44472189 114:-0.84970225 115:-0.84719317 116:0.81021618 117:-0.64130908 118:-1.1849775 119:-0.360501 120:0.39450513 121:-0.081371134 122:-0.051829155 123:-0.52826613 124:0.46878756 125:-0.1485013 126:-0.95769689 127:-1.0995111 128:-1.6712847 129:-1.1535243 130:-0.94042812 131:0.21504382 132:-0.036123027 133:1.1226386 134:-0.50778968 135:-0.36991549 136:0.3956163 137:-1.3595397 138:-0.053561654 139:1.6506265 140:-0.69048057 141:-1.6039883 142:-1.6204843 143:0.13165035 144:-1.7587989 145:-0.47289093 146:0.011608442 147:-0.90103953 148:-0.52833238 149:-0.25591353 150:-1.1432585 151:0.53446861 152:-0.26041086 153:-0.31692266 154:-0.6087761 155:-1.2841807 156:0.51576047 157:0.15446699 158:0.30741841 159:-1.3743265 160:0.79572958 161:0.57344793 162:1.3087389 163:0.46182945 164:-0.37349764 165:-0.7485738 166:-0.33634179 167:0.24832273 168:0.41676019 169:0.26154503 170:0.34306451 171:-0.78359981 172:-0.049857327 173:-0.072258176 174:0.60672713 175:-0.45684534 176:2.2797097 177:1.0461097 178:-0.33677242 179:0.35451566 180:-0.10063232 181:1.1120375 182:2.2095418 183:1.8054792 184:-1.4206411 185:-0.4756356 186:0.77805081 187:0.74391425 188:-1.9967476 189:1.1467513 190:-0.32890435 191:1.8116016 192:-0.28958543 193:0.74493602 194:1.5760075 195:-0.63759383 196:-0.3525275 197:0.38767038 198:0.023627982 199:1.3504097 200:-0.58812769 201:0.52631736 202:0.28081362 203:0.35790807 204:-0.48824052 205:0.45599769 206:1.2679545 207:-1.5596752 208:-0.24412095 209:-0.19897251 210:0.66441139 211:-0.643913 212:-0.64650104 213:-1.2800889 214:0.60073144 215:0.7768228 216:1.1118175 217:1.159098 218:0.62837698 219:0.26873673 220:1.8434093 221:-0.86112382 222:0.93401539 223:-0.66154068 224:0.31081945 225:0.59733015 226:0.37133504 227:-1.2371405 228:-1.0780475 229:0.25089715 230:-0.00099906957 231:0.45540897 232:0.9684858 233:0.54126479 234:-0.21544596 235:1.2463233 236:0.28978352 237:-0.47935473 238:2.124099 239:-0.29245404 240:2.0413728 241:-1.0766924 242:2.0672145 243:0.093291119 244:1.2394469 245:-0.73683441 246:1.5853968 247:0.7040343 248:-0.27155927 249:1.0632836 250:0.73964762 251:-0.1601695 
0.0013312724652725732 1:-0.23575126 2:-0.058046944 3:0.43049279 4:-0.64698796 5:0.97558583 6:-1.0420027 7:-0.46503835 8:-0.17130608 9:-0.48528959 10:-0.1601668 11:-0.29634853 12:0.8402749 13:0.15048211 14:0.34170621 15:-1.4208581 16:0.36514277 17:-0.58055539 18:-0.17121938 19:-1.9371697 20:-0.23225088 21:-0.56218991 22:-1.0840078 23:0.0076808516 24:-0.55198216 25:0.084016999 26:-0.54508563 27:-0.57467056 28:-1.0395073 29:-0.0070677797 30:-0.15542478 31:-0.46859649 32:1.2793816 33:0.32019548 34:-1.1445309 35:-0.53998644 36:0.43079224 37:0.24870072 38:0.60971709 39:1.657513 40:-1.11055 41:-1.1752628 42:0.23798603 43:-0.40656366 44:-0.80332845 45:-0.99834536 46:-1.1563202 47:-0.39943991 48:-0.64751309 49:-0.67645513 50:0.87173293 51:0.56264263 52:0.3039496 53:0.47722508 54:-0.12105149 55:-0.88003908 56:-1.0804283 57:-0.6914106 58:-0.035763875 59:0.68389279 60:-0.78627654 61:-0.071779554 62:-1.1308229 63:-0.45473462 64:0.057414882 65:0.0340301 66:-0.5341552 67:-0.5487043 68:0.66800715 69:-0.69600873 70:0.48734463 71:1.0164643 72:-0.25521257 73:-1.2740961 74:-0.80729287 75:0.18413333 76:0.73811693 77:0.55003242 78:0.34915412 79:-0.38628918 80:-0.59391831 81:1.6905512 82:-0.29952316 83:-0.18200123 84:-0.15143931 85:0.50381423 86:1.0890205 87:-0.52549896 88:0.55631774 89:1.4382438 90:0.58008295 91:-0.98186176 92:-0.56089567 93:0.23310502 94:-0.5905591 95:2.1516179 96:0.19115979 97:0.55901847 98:-0.45107175 99:-0.45092412 100:-0.33969316 101:0.76172453 102:-0.69872366 103:0.059543173 104:0.013175607 105:1.2874216 106:-0.90987056 107:0.42304024 108:0.63327571 109:0.15998402 110:-1.1494307 111:-0.84953821 112:-0.22320279 113:-0.15659325 114:0.37344282 115:-0.45756127 116:0.5446979 117:-0.30442446 118:0.1465683 119:0.20324153 120:-0.60028128 121:-0.58487262 122:-0.43214304 123:-0.20725317 124:-0.85506621 125:-0.83205892 126:-0.84558607 127:-1.2337083 128:-0.92707599 129:-0.29306594 130:-0.14566137 131:-0.49261899 132:-0.44388935 133:-0.21332679 134:-0.18248658 135:-1.049899 136:-0.73293948 137:1.1028854 138:-0.56041774 139:0.51952083 140:-0.6215235 141:-1.7324948 142:0.68249327 143:-0.97937308 144:-0.19785338 145:0.32152624 146:-1.1763502 147:-0.78276319 148:-0.29933889 149:1.0447622 150:0.73856242 151:-0.60936327 152:0.38743088 153:-0.47823007 154:-0.037404664 155:0.023935622 156:1.0829745 157:-0.86977842 158:-0.36343457 159:-0.036396767 160:0.62481789 161:1.1470012 162:0.63177755 163:-0.3916206 164:0.11960066 165:-1.4454003 166:-0.78343518 167:-0.25501587 168:0.4306409 169:0.36154324 170:0.5430201 171:-0.5513471 172:-0.012386643 173:-0.66781707 174:-0.63172075 175:-0.57362522 176:0.0056965144 177:-0.50196142 178:-0.51373144 179:0.64045405 180:-0.70025644 181:0.046081598 182:1.7522376 183:0.18200172 184:1.269183 185:0.13534895 186:0.71224049 187:-0.43635975 188:0.019724741 189:-0.83398538 190:-1.0901331 191:-0.47993876 192:-0.71540743 193:0.22397833 194:-0.043946044 195:-0.80556944 196:0.15168847 197:-1.6924445 198:-0.6912443 199:-0.57954472 200:-0.30821295 201:-0.43281331 202:-0.66259378 203:-0.35619373 204:0.079397883 205:0.76937697 206:-0.12395526 207:0.3637601 208:1.3277373 209:-0.064422937 210:0.11061126 211:-0.5859303 212:-1.1479792 213:-0.55856566 214:-0.10202376 215:0.3879068 216:-0.4534445 217:0.22308409 218:0.27425623 219:-0.21319673 220:0.37163489 221:-1.0143374 222:2.2411706 223:-0.74305325 224:0.52310733 225:-0.11359314 226:0.042135343 227:-0.16363377 228:0.32754825 229:-1.322814 230:-0.13126013 231:-0.31101897 232:0.12507214 233:0.49024054 234:0.38122029 235:0.21662424 236:-0.27968491 237:0.79155389 238:0.11241089 239:0.49600873 240:1.9531962 241:-0.48419218 242:-0.71640591 243:1.1177741 244:-0.71310216 245:-0.57663045 246:1.1028972 247:0.099490645 248:-1.1605045 249:-0.75179569 250:0.11652283 251:1.2259952 
0.00035731701241134155 1:0.72540027 2:-0.75530131 3:-0.65640906 4:-0.015794115 5:0.55923382 6:-1.3146456 7:1.5171501 8:0.17376776 9:-1.3565295 10:-1.4374472 11:-0.32695415 12:1.2610683 13:-0.10018996 14:0.88598462 15:0.59110766 16:-0.96149826 17:-1.0413947 18:0.98589184 19:-1.7188084 20:-0.27663362 21:0.83955621 22:-0.66067201 23:1.6481043 24:-0.92447557 25:-1.1790013 26:-0.47098029 27:-0.49089577 28:-1.885708 29:0.30264133 30:-0.38657072 31:1.8593753 32:0.39654622 33:1.4049188 34:-0.060722392 35:1.5564929 36:1.7738657 37:-1.3512245 38:0.28810555 39:-0.31579554 40:1.0941466 41:-0.68409738 42:-0.60836318 43:-0.050487244 44:0.71835854 45:-0.97474366 46:-1.5289326 47:-1.9080267 48:0.15384471 49:2.222966 50:-1.0077459 51:-0.2345276 52:0.11680788 53:-0.16085877 54:-0.47811891 55:0.29866751 56:-0.70886963 57:-0.08776507 58:-0.12736288 59:0.91367786 60:0.27149462 61:0.070722217 62:-1.0270411 63:-1.0965199 64:-1.2409027 65:-0.25822221 66:-0.036877801 67:1.220608 68:0.056883931 69:-0.86652331 70:-1.7567483 71:-0.046550012 72:-1.2132194 73:-1.1188483 74:-0.50432156 75:-0.54308016 76:1.4088104 77:-0.78962609 78:0.47398538 79:1.6376911 80:1.5907763 81:-0.57642495 82:-0.46145596 83:-2.1805134 84:-0.78921584 85:2.4881324 86:0.0051664663 87:-1.0956187 88:0.60338975 89:1.2338495 90:-0.36064262 91:1.0016837 92:-0.97288332 93:0.66705992 94:-0.45435625 95:-0.34739472 96:-0.16813635 97:-1.4901764 98:-1.8258855 99:-0.36515669 100:-1.324072 101:-0.22865924 102:0.22688524 103:-0.17634171 104:-2.0575599 105:0.30217451 106:2.0317845 107:0.93768339 108:-1.1338736 109:2.4046545 110:-0.023370402 111:0.51165734 112:-0.092908757 113:0.25152564 114:-0.22729464 115:-0.58316743 116:0.83065788 117:-1.0435889 118:-0.61372844 119:-0.067511904 120:0.65681629 121:1.2625476 122:-1.1569453 123:-0.67181695 124:-1.3634332 125:-0.5062651 126:-0.30061295 127:-0.097602831 128:0.28113454 129:-2.4747895 130:0.10618445 131:-1.0254893 132:0.0036391871 133:-0.52195932 134:-0.28671111 135:0.46237272 136:-0.3922017 137:0.30953924 138:-0.64330449 139:1.1537614 140:-0.75729603 141:-0.31660949 142:0.34274109 143:-0.7436315 144:-1.6835181 145:-1.0698868 146:-0.95684432 147:1.3759286 148:0.026701355 149:1.6043733 150:0.064901842 151:-0.8336495 152:-0.66586908 153:-0.88606009 154:-1.4692089 155:-0.41307635 156:-1.6228879 157:-1.4211588 158:-0.12688245 159:-1.6465681 160:-0.76208645 161:-1.4034765 162:0.78451303 163:0.16270583 164:-1.7849614 165:-0.82077433 166:-0.98672741 167:-2.4620752 168:2.1036459 169:-0.59305662 170:-0.62856767 171:-1.193646 172:-0.060417416 173:0.14127479 174:-0.49878392 175:0.19293765 176:1.0305925 177:1.4634863 178:-0.61744186 179:0.0075671936 180:0.61306791 181:2.0279924 182:-0.98241043 183:1.1087496 184:-0.69522388 185:0.35908949 186:-0.91083721 187:-1.432211 188:-1.7973085 189:0.48736886 190:-1.0270483 191:1.7545189 192:0.80775742 193:-0.61000973 194:1.2592532 195:-0.52898214 196:-1.3590166 197:-1.3477059 198:-0.66816066 199:1.1721224 200:1.3420625 201:0.34491693 202:-0.54647309 203:-2.0465316 204:0.98312827 205:-0.36870222 206:-2.3683017 207:-1.2904366 208:0.93342612 209:-0.46386279 210:-0.74027003 211:1.283299 212:-0.99206878 213:-1.9965271 214:-0.25574403 215:1.1532249 216:0.66048414 217:0.95443788 218:-1.3699554 219:-0.71661453 220:1.4139876 221:-0.099641999 222:-0.8346339 223:0.048740265 224:-0.49517753 225:0.83930551 226:1.0129003 227:-0.93437549 228:-1.1684749 229:-0.07309687 230:0.97952664 231:-0.12893168 232:-0.11318389 233:0.9236591 234:-0.28865172 235:-0.49180605 236:1.4840618 237:0.41127337 238:0.42557063 239:0.73629081 240:-0.73854051 241:1.0957732 242:0.21851799 243:0.46610706 244:1.7906635 245:0.17939094 246:0.74368991 247:0.31037705 248:1.2126088 249:1.7262908 250:0.84892064 251:1.0369018 
0.00036369171777481292 1:-0.49565142 2:0.73933346 3:-0.53358946 4:-0.33937859 5:0.5783705 6:-0.88102576 7:-1.0333174 8:1.8485207 9:-0.94170163 10:-0.65526613 11:-0.59222668 12:0.44120147 13:1.0279817 14:-0.078404528 15:0.31810465 16:-0.90762528 17:-1.2052628 18:0.44678118 19:-0.31083391 20:-0.857655 21:0.58187487 22:-1.4618429 23:0.15679394 24:0.51291577 25:-0.67294813 26:-0.11328783 27:-0.96738375 28:-1.2723616 29:0.80170838 30:-0.28340851 31:-0.18739723 32:-1.2772653 33:1.8522993 34:-0.23908186 35:-0.31321371 36:1.5319812 37:-0.46382627 38:-0.36028823 39:-0.64188588 40:-0.15078206 41:-0.84323439 42:-0.14486669 43:1.3333179 44:0.43164039 45:-0.22131143 46:0.77458461 47:-1.2249681 48:-1.3164739 49:1.0034429 50:-0.65953365 51:1.927668 52:-0.50643894 53:-1.4619281 54:-0.083961865 55:-0.4242957 56:0.084575887 57:-0.22149879 58:0.32013728 59:-0.42329202 60:-0.50973695 61:0.70840286 62:-0.8513427 63:0.37160262 64:-0.49093864 65:0.45338937 66:-0.98640708 67:-0.10889699 68:-0.92367894 69:-1.8685481 70:-0.58688612 71:0.56458557 72:-1.1289589 73:-0.49314721 74:-0.99427087 75:-1.4306955 76:-0.054584355 77:-0.29344574 78:-0.0582309 79:-0.67991242 80:-0.12886079 81:0.67324851 82:0.19514057 83:-1.6194324 84:-1.4468022 85:-0.6300397 86:-0.072795253 87:-1.1511411 88:-0.019490448 89:0.30200514 90:1.921744 91:0.59585926 92:0.76589863 93:2.4224503 94:-0.13865855 95:-0.72617779 96:-0.40455123 97:-0.056526431 98:-1.3439436 99:-0.54973721 100:-0.69444455 101:-0.76250902 102:-0.66217822 103:-0.46048609 104:-0.14664167 105:1.011492 106:-1.1572706 107:-0.26604308 108:-0.98527204 109:-1.1963611 110:-0.94507178 111:-0.57937044 112:0.050998892 113:1.5802958 114:-0.92427723 115:-1.0462348 116:0.6194269 117:0.17732159 118:-1.2862533 119:-0.09349225 120:0.45865984 121:0.16539884 122:-0.52014591 123:-0.67128482 124:-1.9327597 125:-1.7606399 126:-1.4090552 127:-0.42047939 128:-0.097202016 129:0.83362377 130:-2.5184543 131:0.25032544 132:0.63395729 133:-0.46259655 134:-0.60364975 135:-1.1780787 136:-0.52099655 137:-1.1188472 138:-0.31164749 139:1.7380872 140:-0.71294623 141:-1.5139567 142:-1.1726619 143:1.1146441 144:-0.49973273 145:0.21313896 146:-1.0425579 147:-0.06413158 148:-0.52985302 149:1.3564697 150:0.11053923 151:0.3685672 152:-1.3456135 153:-1.2267633 154:0.72113225 155:0.28556386 156:-0.6303571 157:-0.014358537 158:0.92830009 159:-1.6617509 160:0.80131558 161:0.18118051 162:1.4061938 163:1.0337476 164:0.027665089 165:0.26585962 166:0.88342241 167:0.67858304 168:-0.081376834 169:2.30706 170:-0.13432534 171:-0.58399315 172:-2.3817811 173:0.54242984 174:-0.21222009 175:-0.89541329 176:0.40050501 177:0.94123244 178:-0.08981354 179:1.255139 180:-0.22954622 181:3.5921742 182:1.0560556 183:0.83397875 184:-2.3303849 185:-0.91658096 186:-0.86077801 187:-1.1263996 188:-0.51337506 189:0.080798323 190:1.2210392 191:1.5238902 192:0.47417755 193:-1.6845132 194:1.5579756 195:-0.54712515 196:-1.44747 197:-0.33655712 198:-0.82651593 199:0.2982466 200:-0.46814451 201:-1.2498895 202:-0.076394129 203:0.24061617 204:-1.0582803 205:1.121561 206:0.99484366 207:-1.1318998 208:0.43653301 209:-0.035630192 210:0.99556708 211:-1.3353692 212:-0.9520087 213:0.070283527 214:0.48775453 215:0.60719111 216:-1.6923115 217:1.2455091 218:-1.1460524 219:-0.33152734 220:1.7957362 221:0.16083573 222:0.12950412 223:-0.8455717 224:2.2899983 225:-0.97193835 226:0.14179167 227:-1.7819404 228:-0.42645586 229:0.44979039 230:0.20911358 231:-0.15662061 232:-1.1063938 233:1.7441017 234:0.68279661 235:-0.20402642 236:0.75953846 237:0.10202332 238:0.33551126 239:-0.167231 240:2.0588026 241:-0.61026545 242:-0.74012266 243:1.0028018 244:1.3639887 245:-0.24559545 246:0.93560936 247:1.7795391 248:-1.2777225 249:1.6340322 250:-0.22550827 251:-0.38200151 
0.00042172601256912969 1:-0.29446991 2:-0.44100376 3:-0.24727551 4:-0.14773283 5:0.13722701 6:-1.3284399 7:-0.92815139 8:-0.040431507 9:-0.3116096 10:0.32248798 11:-0.60723834 12:0.54692751 13:0.56922023 14:-0.02229689 15:-1.7371064 16:-0.72234557 17:-0.91086578 18:0.18859162 19:0.27451715 20:0.63258409 21:-0.76927056 22:-0.76194946 23:-0.49444897 24:1.3168438 25:-0.31936844 26:-0.59912799 27:-0.7022588 28:-0.2632519 29:0.58958288 30:-0.63085518 31:1.4726793 32:0.73899363 33:0.71908832 34:1.4742692 35:-0.81555316 36:0.90285441 37:-0.057878666 38:-0.9958487 39:-0.73703726 40:-0.41844071 41:-0.43548889 42:-1.4526454 43:-0.050264469 44:-0.89128057 45:0.38142843 46:0.9426613 47:-0.67549951 48:0.5300429 49:0.64326205 50:0.38329121 51:1.050443 52:0.8962946 53:-0.59825433 54:0.062996547 55:-1.8566772 56:-0.4449694 57:-0.80941423 58:0.9005176 59:0.8347688 60:0.044920501 61:0.058110935 62:-0.81217291 63:0.017721364 64:-0.0038217042 65:-0.60268895 66:-0.4064695 67:0.68309437 68:-0.7784622 69:-0.66879677 70:-1.6596888 71:-0.49928356 72:-0.97847278 73:-0.70147913 74:-1.2454056 75:-0.42554436 76:-1.323506 77:-1.3215121 78:0.096590946 79:-0.89094853 80:-0.57211699 81:-0.86319123 82:0.41277359 83:-0.88547142 84:-0.2842374 85:1.045257 86:-0.12276412 87:-1.0727339 88:-0.35754615 89:-0.78886859 90:-0.20060139 91:-0.35295494 92:-1.0052456 93:-0.23404374 94:-0.71546475 95:-0.89172038 96:-0.32469388 97:-0.43708217 98:-1.0686502 99:-0.70335747 100:-0.01181687 101:-0.88146661 102:-0.83006559 103:-0.4566439 104:-1.5772962 105:-0.74818548 106:-0.75351648 107:0.052956957 108:-0.1447226 109:0.78494887 110:-0.47219137 111:-0.61271047 112:-0.37409939 113:0.78857393 114:-0.37302655 115:-1.1190011 116:0.57352103 117:-0.65539171 118:-1.8878721 119:-0.867376 120:-0.56167096 121:-0.51981437 122:-0.42554118 123:-1.0086541 124:-0.95384863 125:-0.069932372 126:-1.3343232 127:1.0080433 128:0.966486 129:0.018415043 130:-0.082313985 131:-1.3138336 132:0.9862083 133:0.049248805 134:-0.30542763 135:-0.48894209 136:-1.6008893 137:-0.46592364 138:-0.9012803 139:0.74304159 140:-0.45176883 141:-0.84543214 142:0.22215413 143:-0.70649149 144:-0.094363114 145:-0.99283056 146:-0.16651288 147:-1.0358645 148:-0.37906034 149:1.9187321 150:-0.097491475 151:-0.90833607 152:0.024708601 153:-1.0900977 154:-1.0864808 155:0.0059835445 156:-0.22187184 157:0.65516484 158:-0.37189723 159:-0.70966829 160:-0.61300006 161:-0.72567918 162:-0.72258448 163:1.5219656 164:-1.0905977 165:-0.78523972 166:-0.91036823 167:0.99427494 168:-0.33962888 169:-0.2143408 170:0.95119231 171:-0.43447669 172:-1.12166 173:-1.9886955 174:-1.0090505 175:-0.059030764 176:0.54438498 177:1.1515045 178:0.25615794 179:-0.49682098 180:0.40123943 181:0.31024276 182:0.36758515 183:0.93442827 184:0.19484666 185:-0.093843044 186:-0.6295964 187:0.50863232 188:-0.41185096 189:0.55765716 190:0.26117 191:1.0888842 192:-0.66334662 193:-1.0085315 194:0.21743604 195:-0.48585525 196:-0.10465264 197:-1.4713122 198:-0.76325333 199:-0.37561095 200:-0.76922243 201:-1.213695 202:-0.34196746 203:-0.055387589 204:-1.1138919 205:1.3814601 206:-0.91890377 207:0.43561318 208:0.70995769 209:-0.057403219 210:0.19022835 211:-0.3551654 212:-1.2942712 213:-0.5522699 214:1.1274818 215:-0.61827245 216:0.57276368 217:-0.15480143 218:-0.81192148 219:-0.67033488 220:0.22207925 221:-0.66739406 222:-0.31824798 223:-0.13953611 224:-0.3950677 225:0.42707698 226:1.2476277 227:-0.10666027 228:-0.60881617 229:0.77598075 230:-0.21766139 231:-0.26025881 232:0.33511138 233:1.1002897 234:0.38075644 235:-0.034087238 236:1.3599276 237:0.070322914 238:-0.80509318 239:0.89487869 240:-0.57962005 241:-1.7374963 242:0.63044448 243:-0.53859671 244:-0.15753269 245:0.25448044 246:0.35716834 247:1.2161045 248:-1.4022376 249:-0.0041940891 250:1.0983453 251:0.64157535 
0.00051209946122133599 1:-2.7196952 2:-0.98272588 3:1.4703431 4:-0.28250415 5:0.41862235 6:-1.0114994 7:-0.33966841 8:-0.45472454 9:-0.65570371 10:-1.4642619 11:-0.43654421 12:-0.5012492 13:0.70313175 14:0.36361221 15:1.2585827 16:-1.3814203 17:-0.80065681 18:-0.54140256 19:0.16497346 20:0.81640976 21:-0.58710807 22:-0.36583131 23:-0.94194129 24:-0.24379377 25:0.17213986 26:-0.85514204 27:-0.082070756 28:-0.88417203 29:-1.100585 30:-0.81262273 31:1.1488613 32:-0.73756817 33:0.88878851 34:0.63623497 35:-0.27584887 36:0.98071508 37:-0.48300435 38:0.21836335 39:-1.2527181 40:-0.063378691 41:-1.3600701 42:-0.0861393 43:-0.57754361 44:-0.35495639 45:-0.91636907 46:0.25902143 47:-0.97866749 48:-0.012993974 49:-0.88851763 50:-0.42912484 51:-0.70275867 52:0.90985847 53:-0.66333662 54:-0.58838071 55:-0.49456094 56:0.30009667 57:1.0945629 58:0.24569768 59:-0.16044224 60:-0.68560908 61:-0.32507364 62:0.41041137 63:-0.68029199 64:-0.67555477 65:0.14211785 66:-0.51617612 67:0.32454178 68:-0.53238014 69:-0.57066253 70:-1.0696266 71:-0.66016323 72:-0.077401576 73:-0.32332354 74:-0.56000099 75:-0.76444973 76:0.70569142 77:-1.1463838 78:0.62512963 79:0.10906854 80:-1.119132 81:0.50524062 82:-0.79883579 83:-0.58136888 84:-0.85670176 85:1.0764802 86:1.0392542 87:-0.81670247 88:0.19938996 89:-0.34470423 90:-0.9494923 91:-0.7606155 92:0.75997 93:0.51198328 94:-0.93164852 95:-0.61274834 96:-0.45986946 97:-0.76491644 98:-0.34316366 99:-0.44053013 100:-1.2758218 101:-0.4673904 102:-1.1727543 103:0.026030176 104:-1.3426965 105:-0.63350926 106:-0.055653642 107:-0.58083252 108:-0.5472075 109:1.3416853 110:-0.81190297 111:0.54523856 112:-0.88367225 113:-1.3182525 114:-0.40791166 115:-1.1527572 116:0.49450535 117:0.73383968 118:2.2028902 119:-0.2047997 120:0.63973267 121:0.15861712 122:-0.16813878 123:-0.79746771 124:-0.83965632 125:-0.13294704 126:-0.11941958 127:0.94411691 128:-0.36478301 129:0.38561415 130:-1.2149788 131:-0.63575407 132:-0.8035819 133:-0.43856635 134:-0.39718828 135:-0.84007743 136:0.10167049 137:-0.2075038 138:0.47170556 139:1.0408866 140:0.041312532 141:-0.040017928 142:-0.071621746 143:0.87702907 144:-0.26201931 145:-1.4047482 146:-1.7347949 147:-0.65480239 148:-0.63051442 149:2.1722499 150:0.46462919 151:0.31437327 152:-0.84696365 153:-1.2929402 154:-0.44230103 155:0.46648851 156:0.18824593 157:-1.0667857 158:-0.43590822 159:-1.2891357 160:0.79469218 161:0.18027121 162:-0.080743987 163:0.53503943 164:-0.13272704 165:-1.1105627 166:-1.7030172 167:-1.7942788 168:1.6485003 169:-0.92766385 170:0.68629537 171:-0.3725827 172:0.10939772 173:0.22964393 174:-0.29174593 175:-0.91757633 176:-0.65260136 177:0.83406866 178:-0.53014654 179:-1.2852802 180:0.24911753 181:0.80567463 182:0.65882036 183:0.84145688 184:0.30120996 185:-0.24359239 186:-0.39966597 187:-1.054026 188:0.93254061 189:0.080798323 190:0.13088785 191:1.2979515 192:-0.41644391 193:0.11245924 194:0.30487332 195:-0.42976853 196:-0.079032746 197:-0.57127908 198:-0.63792084 199:1.156786 200:0.022040401 201:-1.450389 202:-0.47699319 203:1.9118962 204:-0.88440987 205:1.1309689 206:-0.22518456 207:-0.81100826 208:-0.20168038 209:-0.091787943 210:1.5897294 211:-1.0333418 212:-1.8911068 213:0.23951561 214:1.1739546 215:-0.39972994 216:1.1798483 217:0.91790994 218:-0.33834514 219:-2.008516 220:1.343114 221:0.81195702 222:-0.18716803 223:-0.49385142 224:0.94528726 225:0.90490842 226:0.79165795 227:0.48942068 228:-1.0692514 229:-0.43929683 230:1.3203816 231:-1.9194248 232:0.4442382 233:0.4495381 234:-1.6414882 235:-0.8923976 236:1.8424298 237:0.81956387 238:-0.82466048 239:-0.19941164 240:-0.54014832 241:-1.5412843 242:1.9499674 243:0.16413686 244:0.51095356 245:0.028414504 246:0.4702056 247:1.0149988 248:-0.56762859 249:1.4150768 250:0.87229807 251:0.83973078 
0.0018212516529714576 1:0.1131094 2:-1.4408821 3:-0.22295438 4:0.32273101 5:0.33386929 6:-0.46346644 7:-0.21428556 8:0.038436673 9:-0.59336796 10:-1.025664 11:-0.24956662 12:0.3879521 13:0.21331092 14:-1.2375653 15:-0.147351 16:-0.21793523 17:-0.077873367 18:1.7605413 19:0.1850496 20:-0.503001 21:-0.22978465 22:-0.91142505 23:-0.59169549 24:-0.53481069 25:1.1157837 26:-0.86553064 27:2.6550973 28:-0.80618266 29:0.70368469 30:-0.13198484 31:0.021358736 32:-0.093528796 33:0.049438165 34:0.61103012 35:1.026712 36:0.28954529 37:-1.0692399 38:0.31567226 39:-0.11126721 40:-0.44251211 41:-0.044161816 42:1.3859363 43:-0.90955287 44:0.25024139 45:-1.3437629 46:-0.25891838 47:-0.51765275 48:0.0070253704 49:-0.96940681 50:-0.66217724 51:-1.1279784 52:0.66708506 53:2.6191865 54:-0.24398761 55:-1.1526492 56:-0.10889656 57:-0.2924696 58:0.89357579 59:-1.1683013 60:-0.9342001 61:0.026611346 62:-0.24038608 63:-1.5128952 64:-1.1360924 65:-0.66591543 66:0.022164552 67:0.38593424 68:0.78733279 69:1.4265087 70:-1.095498 71:-1.6172767 72:0.28302271 73:-0.9058739 74:-0.49600923 75:0.44359204 76:-0.85005355 77:-0.86388244 78:0.60446254 79:-0.93799766 80:-0.76035129 81:-0.97423057 82:-1.2016244 83:0.051754286 84:-0.3620589 85:0.33258464 86:0.36875058 87:-0.89189336 88:-1.8009225 89:-0.012705268 90:-0.50532419 91:-0.55237172 92:-1.2466552 93:0.89592131 94:0.47929064 95:-0.86311693 96:0.34276494 97:-0.3583398 98:-0.030898976 99:-0.11827556 100:-0.35516197 101:-1.4555869 102:0.58376333 103:0.57541418 104:0.79419267 105:1.6302249 106:-1.2609633 107:2.5991849 108:0.48735065 109:-0.35354934 110:0.12500026 111:-0.34306763 112:0.36446283 113:-0.62196386 114:-0.85933426 115:-0.86511212 116:0.33055582 117:-1.2191824 118:0.48986229 119:0.41289207 120:1.974348 121:-0.39858507 122:-0.22356902 123:-0.72944486 124:-0.14903305 125:0.46337913 126:-0.4265764 127:-0.56394111 128:0.89783634 129:-0.34806836 130:-1.1847129 131:-0.092535042 132:-0.27539974 133:2.0366333 134:0.91696421 135:-0.80581156 136:-0.74805291 137:0.42235726 138:-0.99421614 139:-0.48973183 140:-0.92914977 141:0.3267121 142:-0.41984324 143:-2.7260355 144:-0.72944382 145:-0.6492475 146:-0.18353597 147:-0.26935834 148:0.43732411 149:-0.13779171 150:-0.74294856 151:-0.35280464 152:1.0914222 153:-0.60646438 154:-0.43238127 155:-0.23038755 156:-1.1842928 157:-1.0667857 158:0.0038864348 159:0.066856779 160:1.026192 161:-0.15473422 162:0.89199898 163:-0.83996847 164:-1.2207355 165:0.10915923 166:0.45103098 167:0.23002152 168:0.4122907 169:-0.68756701 170:-0.59941112 171:-0.31866385 172:-1.2720995 173:-1.0475755 174:-1.2448294 175:-0.42605324 176:-0.71728625 177:-0.45784009 178:-0.34778853 179:0.81161934 180:-0.35691905 181:-0.33459416 182:0.76944284 183:-0.42142808 184:-0.19886178 185:-0.10821962 186:0.63663759 187:1.9194576 188:0.92031861 189:2.1182882 190:-0.38889792 191:-0.60436558 192:-1.5235084 193:-0.16901675 194:0.46689665 195:0.30827379 196:0.63104272 197:1.054074 198:-0.51614159 199:0.76790974 200:-0.74393705 201:-0.24074946 202:-0.19423673 203:0.43106859 204:-0.53270872 205:-0.010451517 206:-1.0271039 207:0.17335925 208:1.1964909 209:-0.93159618 210:-0.0056112392 211:0.23283872 212:-0.0038210653 213:-0.89942436 214:2.6842585 215:0.14314306 216:0.59124086 217:-0.31482144 218:0.59615361 219:-0.093037669 220:-0.028217424 221:0.43472147 222:-1.0339301 223:-0.11894735 224:-1.0112302 225:-0.1041188 226:1.544806 227:1.5062328 228:0.79711153 229:1.2227207 230:0.53368856 231:-0.25893947 232:2.8985936 233:0.3107736 234:0.30091465 235:-1.8353272 236:0.51074879 237:-1.0635732 238:1.2025057 239:-1.3207634 240:-0.46327194 241:-0.031051854 242:0.39375841 243:-0.56837745 244:0.38842212 245:-0.028773295 246:0.081415975 247:-0.089587017 248:1.159559 249:1.2563928 250:1.5107738 251:1.5545196 
0.00025914537512733215 1:-0.1842503 2:0.3763673 3:-0.61252498 4:-0.57710988 5:0.75873798 6:-0.97924715 7:-0.37600696 8:0.038436673 9:-0.0083288711 10:-1.2603851 11:-0.61683229 12:2.1973752 13:0.11061952 14:0.3068585 15:-1.8127955 16:-0.16209682 17:0.61657184 18:-1.0432897 19:-0.8251788 20:-0.87413592 21:-0.33367658 22:-0.096224334 23:0.05781097 24:0.091116582 25:-1.0027295 26:1.52889 27:2.2944403 28:-1.2338248 29:-0.010119101 30:-0.28291426 31:0.18006447 32:0.82556434 33:0.43361796 34:-0.89776138 35:-0.93473227 36:-0.25132238 37:-0.55359046 38:0.37603866 39:0.75225619 40:-1.2641109 41:-0.45255418 42:-0.1327686 43:-1.5382987 44:-0.39830191 45:-0.25478052 46:-0.13433717 47:-0.39010077 48:0.57879341 49:-1.2887948 50:-1.2588579 51:1.6145157 52:-0.17007665 53:1.4900352 54:-0.75390849 55:-0.79201667 56:-0.55036181 57:-0.86011716 58:1.9349907 59:-0.88079195 60:-0.89299404 61:-0.6342504 62:-1.1220034 63:-1.5575312 64:-0.19517896 65:0.47491854 66:0.17502007 67:1.0147054 68:-0.78479335 69:1.140474 70:-0.17249419 71:-0.60538721 72:-0.98719661 73:0.20471734 74:-0.62341551 75:0.22442234 76:-1.5105946 77:-0.59804614 78:2.1228458 79:-0.8288826 80:-0.79176314 81:-0.63600399 82:-0.82316139 83:-0.65555108 84:-0.2619374 85:-0.03853274 86:2.4462333 87:-0.44076285 88:-1.4087702 89:-0.72875096 90:-0.83429484 91:-0.69348133 92:0.1270778 93:-0.26964337 94:-0.91798621 95:1.9792136 96:0.36667261 97:-0.89759393 98:2.5566409 99:-0.46737261 100:-0.50097504 101:0.5463093 102:-0.45743224 103:0.90968484 104:0.10656085 105:0.89045083 106:-0.58291022 107:0.50162983 108:-0.93610332 109:-0.72079314 110:-0.37124417 111:-1.0484576 112:-0.52324201 113:-0.73885108 114:-0.11763217 115:-1.1027923 116:-0.28090397 117:-0.93688236 118:-0.4844185 119:-0.40902691 120:2.1743006 121:-0.91305249 122:0.12677454 123:-0.26220464 124:0.4330265 125:-0.50910475 126:-0.13304004 127:-0.55876737 128:-0.99384644 129:-0.49982975 130:0.23602105 131:-1.7061669 132:0.064624576 133:4.334766 134:-0.13896652 135:0.11850481 136:-0.59427332 137:0.065070826 138:-0.46484126 139:-0.21582847 140:-0.6947638 141:-1.1794601 142:0.99585805 143:-1.0526681 144:-1.4823552 145:-1.032935 146:-0.83326589 147:-0.35839482 148:-0.45541642 149:-0.47001717 150:-0.35438283 151:-0.73378279 152:-0.23919217 153:-0.45695472 154:-0.90324516 155:-0.91635571 156:1.1246515 157:-0.74769921 158:0.0027904512 159:-0.45623259 160:0.44646485 161:2.1785307 162:3.0131625 163:0.33928484 164:0.71978774 165:-0.68887565 166:-0.59899439 167:-0.40101428 168:-0.92000447 169:-0.71109159 170:-0.44538681 171:-0.47868668 172:-0.76785058 173:-0.28774941 174:-0.85264304 175:-0.095545292 176:0.32151586 177:-1.2956278 178:0.12170523 179:1.4672249 180:-0.97401581 181:-0.32077209 182:0.28480996 183:-0.82461569 184:0.62692859 185:-0.10074019 186:0.2887255 187:-1.3414969 188:-0.29844036 189:-0.75345748 190:-0.67399678 191:-0.49256086 192:-0.92428667 193:0.33332178 194:-0.6768243 195:-0.5155334 196:-1.0800883 197:-0.025405241 198:-0.8705463 199:0.22748851 200:-0.96657384 201:-1.5454837 202:-0.14155732 203:0.84955841 204:-0.44667929 205:0.21306044 206:-0.19721806 207:-0.1129958 208:0.94645543 209:-0.25413381 210:1.5755591 211:-0.75699563 212:-0.23664547 213:0.29157667 214:0.056927277 215:-0.029891258 216:0.02042524 217:-0.039582872 218:1.3586683 219:0.34008349 220:-0.80820427 221:-1.5810671 222:0.26168495 223:0.35729141 224:-0.25214983 225:-0.19173003 226:0.090018132 227:1.5376478 228:0.20000391 229:0.63546032 230:-0.078904597 231:-1.3406133 232:2.2342936 233:-0.70865868 234:0.20398528 235:-0.72137302 236:0.013387287 237:-0.45757495 238:1.8423867 239:-1.2885191 240:0.78198441 241:-0.70920077 242:1.3652203 243:0.26732271 244:-0.41429048 245:-0.57034858 246:-0.86186589 247:0.98632138 248:-1.0001514 249:-1.1137917 250:1.4172052 251:0.82866272 
0.0012059746647051913 1:-0.88142004 2:-0.28159678 3:3.1627057 4:-0.74414384 5:-0.18440707 6:0.51595652 7:-1.2226319 8:-1.0907807 9:0.22044513 10:1.4155156 11:-1.0356635 12:-0.33552692 13:0.080109558 14:-0.080383135 15:-0.10541852 16:-0.36808915 17:-0.58357279 18:1.322115 19:-0.32512292 20:-0.26801283 21:-0.2639363 22:-0.11592034 23:-1.4741238 24:-0.13392065 25:0.41398736 26:-0.9531628 27:1.6574705 28:-0.061583416 29:0.15743951 30:0.056966867 31:-1.0120372 32:1.0505672 33:-1.9800145 34:-0.077316486 35:-0.93228846 36:0.11243657 37:1.1613233 38:1.0483547 39:1.2167905 40:-1.4152993 41:-0.80956343 42:-0.64742358 43:-1.221505 44:-1.054682 45:0.63672095 46:-0.28853806 47:-0.42763914 48:2.1198287 49:0.064157492 50:0.62076941 51:1.2684573 52:0.90331392 53:0.93674784 54:-0.99422958 55:-0.62995117 56:0.27392419 57:-0.38192047 58:-0.50013591 59:1.0991621 60:-0.0959929 61:0.25832697 62:-1.1513568 63:-1.2922401 64:0.87733935 65:-0.77971247 66:-0.61060742 67:0.10946755 68:2.10418 69:1.9511751 70:1.2536417 71:1.1849 72:-0.66561015 73:0.19730624 74:-0.5443494 75:0.79598994 76:-0.9639775 77:0.16594786 78:3.3970053 79:-0.25079724 80:-1.1901577 81:0.32414282 82:-0.69201939 83:0.033595432 84:-0.80260991 85:-1.5616622 86:1.3313917 87:1.5534335 88:-0.68977353 89:1.377958 90:-0.81815646 91:-2.0142945 92:0.19557648 93:-1.3282294 94:-1.9270639 95:0.57096431 96:-0.78381789 97:2.3737339 98:-0.48774247 99:-0.94491716 100:0.77999874 101:-0.78180538 102:-0.89913333 103:1.5256207 104:-0.27257026 105:0.37782823 106:-0.14405668 107:1.5607152 108:1.3418095 109:-0.042741059 110:-1.9211143 111:-0.45595557 112:-0.91848209 113:-0.82503691 114:0.95974352 115:-1.2539757 116:0.10051462 117:-1.0246617 118:-1.0563252 119:-0.012762069 120:0.68271856 121:-1.3450026 122:1.0875101 123:1.6032579 124:-1.4266789 125:-0.30930836 126:0.38257687 127:-0.5811723 128:-0.27631362 129:-1.2713485 130:1.2288802 131:0.24133037 132:-1.0133794 133:0.7713387 134:-1.3446708 135:-0.82041825 136:-1.8166872 137:3.411567 138:-0.83750152 139:-0.037435739 140:-0.93432651 141:0.80667737 142:0.17456463 143:-1.1487146 144:0.56776842 145:-0.2498542 146:-0.8079613 147:-1.732293 148:-1.357555 149:-0.040052339 150:-0.014514403 151:-0.74052654 152:2.0268571 153:1.1356758 154:-1.1168671 155:1.0100451 156:-0.61109 157:-0.54605775 158:0.68837678 159:0.12307555 160:1.6985271 161:1.7882973 162:-0.28053508 163:-0.89398988 164:-0.60598154 165:-0.94721953 166:-1.8567757 167:-0.96631126 168:-0.11721706 169:1.129014 170:-0.94963956 171:-1.1719802 172:0.087683654 173:-1.3303485 174:-1.3130788 175:1.0147265 176:0.85534472 177:-0.92663092 178:0.26300601 179:1.2325552 180:-1.6120381 181:-0.021595297 182:0.75541773 183:-1.290367 184:0.96894531 185:-1.7782822 186:-0.14201159 187:-0.18937988 188:0.58065237 189:-1.9450867 190:-0.64437067 191:-1.3110772 192:-1.3450343 193:0.17453172 194:-0.24422367 195:-1.1276632 196:0.37795543 197:2.104999 198:-0.94238139 199:-0.98383437 200:-0.76485552 201:-1.0237435 202:-0.7478219 203:-0.58094528 204:-0.65332688 205:1.0346353 206:0.10322049 207:0.7947317 208:0.6655945 209:0.20940559 210:0.4394997 211:-0.006869942 212:0.63406624 213:0.85241016 214:0.51367253 215:-0.6970974 216:-0.18493237 217:-0.69096698 218:-0.61971633 219:-0.42806476 220:-0.92428621 221:-1.7662379 222:1.0026492 223:-0.56492617 224:-0.85952107 225:1.3868123 226:-0.82760269 227:1.6521034 228:0.82542047 229:1.4709976 230:-0.61177171 231:0.29039508 232:1.2286001 233:-0.3045291 234:1.4167246 235:0.1706394 236:-0.34716674 237:0.90222543 238:0.34767509 239:0.0017863723 240:-0.27359017 241:0.94806721 242:1.3652203 243:0.19925417 244:-0.10102768 245:-0.66068708 246:0.27604247 247:0.099490645 248:-0.47142882 249:-1.2350523 250:-0.77950715 251:-0.59248079 
0.00046900861964940891 1:-2.5485664 2:-1.6555225 3:-0.48376115 4:-1.0602858 5:1.1182316 6:0.77719525 7:0.73988232 8:1.4093284 9:-2.2282156 10:0.37935667 11:0.099231011 12:2.2590393 13:1.2560762 14:-1.3775417 15:0.14984183 16:-0.76278811 17:-0.44759987 18:-0.0368335 19:0.26147984 20:-1.1963903 21:-0.12179575 22:-0.27825543 23:0.81657132 24:-1.006668 25:-1.3502945 26:-1.0598191 27:-0.75940386 28:-1.3259715 29:2.3648944 30:-0.6301858 31:3.585811 32:3.4062481 33:1.0222063 34:-0.67155597 35:0.81919353 36:0.62936937 37:-1.1180895 38:0.5859194 39:0.7266348 40:0.39598078 41:-0.67207082 42:-1.5283344 43:0.12372294 44:-0.1601538 45:0.26968702 46:-0.50771754 47:0.21337412 48:1.6868495 49:-0.51220259 50:3.3822295 51:-0.12023431 52:-0.79536677 53:-0.61550671 54:-0.1706435 55:0.57869515 56:-1.6719944 57:0.18897737 58:-1.2349612 59:0.85572685 60:-1.690153 61:-0.026962757 62:-1.2282776 63:0.58094212 64:-0.9120039 65:-0.41269137 66:0.40064573 67:0.48126165 68:1.3351778 69:0.26438187 70:-0.89070158 71:-1.362131 72:-0.45810458 73:-0.75068294 74:-2.1433518 75:-1.7006716 76:-1.0245468 77:-0.81380208 78:0.22815585 79:0.83409022 80:-0.70572956 81:-0.35523308 82:0.9230922 83:0.9592732 84:-0.53065652 85:-0.95515263 86:-0.34928014 87:-0.63643998 88:-0.61564688 89:1.6071084 90:-1.5864349 91:0.48151627 92:-0.70487664 93:0.35528346 94:0.5726097 95:0.66350264 96:1.0432934 97:-0.92878503 98:0.60599172 99:0.78678029 100:-0.78110114 101:-0.20881487 102:-1.3935928 103:0.28071117 104:-0.98179712 105:0.80525564 106:1.0030833 107:-0.48333894 108:-1.9353815 109:-0.086744249 110:-0.4132384 111:1.505389 112:-1.5705189 113:-0.5586294 114:-0.024745135 115:0.31367246 116:0.35880312 117:-1.4397177 118:-0.16282163 119:-0.64796346 120:-0.54465486 121:-0.26371603 122:-1.0899662 123:-1.2510781 124:-0.1792017 125:0.39197314 126:0.013766838 127:-0.47980204 128:0.19982962 129:-0.18655416 130:0.87006024 131:-0.038455482 132:-0.48488256 133:-0.59345503 134:0.97495644 135:-1.1428191 136:-0.079787499 137:0.76226205 138:-0.15064183 139:0.36703561 140:-0.03309076 141:-1.5304976 142:-0.45014842 143:0.1040609 144:-1.2314305 145:-0.90627032 146:0.48422922 147:0.6491392 148:-0.2325055 149:-0.20286089 150:-0.30339875 151:-0.81472519 152:-0.26096532 153:-0.81821537 154:-0.90210316 155:0.61307437 156:0.25898509 157:-0.46412258 158:-0.95765193 159:-0.41514352 160:-1.1125083 161:-1.1515189 162:-0.35077681 163:-0.07700851 164:0.62162411 165:-0.52376298 166:0.93950003 167:-0.32325392 168:0.73623578 169:-0.63830773 170:1.7367085 171:0.31501268 172:-0.47554583 173:1.6529909 174:0.36544178 175:0.46234583 176:-0.71635277 177:1.1557698 178:-0.50421894 179:-1.1078116 180:0.82758638 181:0.82744325 182:0.57498539 183:0.90512207 184:-0.91403188 185:2.0828635 186:-0.48786729 187:-0.31904194 188:-0.30349212 189:-1.4887071 190:-0.12767619 191:2.3003853 192:-1.11504 193:-1.0709133 194:1.0337222 195:0.5952007 196:-1.1765973 197:-1.079003 198:-0.27173826 199:0.65571566 200:-0.56312466 201:0.40387139 202:0.31843537 203:-0.68801316 204:0.91117025 205:-0.33586596 206:-0.40564764 207:-0.15675373 208:-0.56249673 209:1.0319025 210:1.7102755 211:-1.1332244 212:1.0068365 213:-0.98971734 214:-0.46084094 215:0.86911314 216:2.6245474 217:1.7361587 218:-0.91079867 219:-1.2849671 220:2.0357377 221:0.81049645 222:-0.81534962 223:-0.29151837 224:0.24158804 225:-0.94942361 226:2.2254446 227:1.5790697 228:-0.53434516 229:0.68008903 230:1.6488487 231:0.78462952 232:0.012590935 233:0.0028054779 234:3.2110401 235:-0.21581459 236:0.51110666 237:-1.3744196 238:-0.049178428 239:1.0156782 240:1.8399606 241:-1.2590884 242:0.15887137 243:0.51314393 244:2.1146073 245:-0.2444888 246:0.16022501 247:-0.041269104 248:0.1988853 249:2.2406592 250:0.21705264 251:2.773405 
0.00087886699244055797 1:1.0640805 2:-0.014092179 3:-0.8014707 4:-0.29114084 5:0.76287564 6:-0.83599214 7:-0.84653498 8:-0.30455201 9:0.13565391 10:-0.13253946 11:-0.22360525 12:0.92718322 13:0.63695315 14:-0.74632568 15:0.017818233 16:-0.26193066 17:-1.3375431 18:-0.3806985 19:-0.32512292 20:-0.9128964 21:-0.33957745 22:0.16086568 23:-0.35089358 24:0.45879228 25:-0.45850911 26:1.193901 27:-0.16219443 28:0.077094605 29:0.27787868 30:-0.40793637 31:0.34649846 32:0.45662638 33:1.0008904 34:-0.55864798 35:-0.95783742 36:0.93345907 37:-1.030384 38:0.064425896 39:-0.8216783 40:-0.59800449 41:-0.31596378 42:-0.67386915 43:-1.2497231 44:-0.75238035 45:-0.70312403 46:-0.1037523 47:0.51101134 48:0.091742562 49:-0.10160243 50:0.40432117 51:-0.8145303 52:0.045557007 53:-0.92164355 54:-0.53979576 55:-0.027437955 56:-0.039443171 57:-0.13543465 58:1.6445233 59:-1.2104734 60:-0.62239928 61:1.0972158 62:-0.40201177 63:0.29794032 64:-1.8171667 65:0.79375531 66:-0.89888636 67:2.3802433 68:-0.25347603 69:0.59924595 70:-0.57155919 71:-0.17537257 72:0.72242284 73:-1.0322984 74:1.7585129 75:-0.62139546 76:-0.45363296 77:-1.0645666 78:-0.47136541 79:-1.2178125 80:0.58661902 81:0.38761885 82:-0.21154018 83:-0.25270846 84:-1.26167 85:2.2120319 86:0.9850533 87:-1.0249633 88:0.074424518 89:-0.088976624 90:1.4189836 91:0.26354783 92:-0.69655576 93:1.3829771 94:0.83512286 95:0.012972443 96:0.84911002 97:-0.42812534 98:0.38420152 99:0.023145215 100:-0.39669338 101:-0.23602242 102:0.9711883 103:-0.4832528 104:-0.30214458 105:-0.50366422 106:-1.0171695 107:1.0045907 108:-0.33523846 109:-0.78708392 110:-0.87529694 111:-0.39486527 112:-1.4287296 113:-0.91109945 114:-0.70712605 115:0.036932444 116:0.72109161 117:0.15845226 118:0.68776711 119:-0.18687687 120:2.4285831 121:0.0067086002 122:-0.37339441 123:-0.60265608 124:-1.1676047 125:-0.71764342 126:-0.085497413 127:-0.011973021 128:-1.2624258 129:-0.61270809 130:-0.98729997 131:-1.3536564 132:-0.30631357 133:-0.194858 134:-0.71592818 135:-0.90690904 136:0.032087399 137:-0.73906771 138:-0.088476777 139:1.2239565 140:-0.44554256 141:-1.0474709 142:-0.31103843 143:0.37541672 144:-1.1266147 145:-1.3429318 146:0.71482307 147:-0.35788204 148:0.95277133 149:0.62171709 150:-0.18474807 151:0.13917524 152:0.094378405 153:-0.87318544 154:0.2654279 155:0.77687932 156:-0.076290423 157:-0.70490309 158:1.0994955 159:-0.28017069 160:1.2710185 161:0.071155153 162:0.61815876 163:1.326224 164:-0.27693663 165:1.1016337 166:-1.9882157 167:0.16646555 168:0.28432843 169:-0.94259147 170:0.96149429 171:-0.21845454 172:1.3354816 173:-0.76368943 174:-0.29227296 175:0.19293765 176:0.71987983 177:0.52036674 178:-0.61670953 179:0.90269626 180:-0.69053819 181:0.35894712 182:-0.13213261 183:0.75737841 184:-0.26831112 185:-0.066565693 186:-1.1828243 187:-0.31467678 188:-2.7516696 189:-0.72149113 190:0.12276095 191:1.1613117 192:0.13342001 193:-1.576804 194:0.43284993 195:-0.80573751 196:-0.069144919 197:-0.13060617 198:-1.6692303 199:1.5111452 200:-0.57625047 201:-0.61938245 202:-0.17161286 203:-1.1860203 204:-0.47751844 205:0.95355355 206:-0.12898201 207:-1.1639008 208:0.3214938 209:1.3300918 210:1.6038997 211:-0.40553792 212:-0.16915151 213:-1.3607365 214:-0.37564219 215:1.2755906 216:-0.15256436 217:1.0024888 218:0.093401774 219:-0.089701977 220:-0.40214289 221:-0.20830827 222:-0.15877307 223:-0.65922758 224:1.7139509 225:0.94964247 226:1.8109247 227:-1.2847141 228:-0.19467345 229:-0.3054107 230:0.76298987 231:1.2367664 232:0.032726723 233:1.2214711 234:0.16199951 235:1.0594506 236:1.0456944 237:0.79391743 238:0.58764429 239:0.68634179 240:-0.44295956 241:-0.42958102 242:0.37651563 243:0.6705063 244:1.15841 245:3.2310452 246:0.55798933 247:-0.419646 248:-1.1659208 249:1.0652138 250:0.70535712 251:0.09803278 
0.00022050779421100243 1:-1.0554012 2:-0.28110318 3:1.0346279 4:-1.6304396 5:0.78342602 6:0.17616401 7:-1.2771978 8:2.8762602 9:0.19813165 10:-0.55889324 11:-1.0498123 12:-0.13048246 13:0.83120122 14:0.70841475 15:-1.1512867 16:-0.43234364 17:0.15670314 18:1.1768885 19:-1.0108926 20:-1.0548528 21:0.2350079 22:0.50511768 23:-1.3110928 24:0.087354635 25:-0.84634614 26:-0.68444436 27:2.0406036 28:-0.40791958 29:-0.76191771 30:0.072027896 31:0.92120824 32:0.88812204 33:0.80942079 34:-0.4922662 35:-0.91549444 36:-0.031809472 37:1.1381277 38:-0.069358275 39:1.9185393 40:-0.87609528 41:-0.78239515 42:-0.60930549 43:-0.099378969 44:-0.93923807 45:-0.54773502 46:-1.3860856 47:-0.19106994 48:0.37342479 49:-2.0930501 50:1.8921615 51:0.25691828 52:2.2907047 53:-0.43141625 54:-0.82833336 55:-1.0340948 56:0.4400005 57:-0.63093584 58:-0.4436259 59:-1.6735914 60:0.80080766 61:2.8126555 62:-0.48270958 63:0.77970315 64:-0.78607519 65:-2.2626269 66:-0.98684288 67:1.2531099 68:1.6249115 69:2.0008444 70:1.3579413 71:0.74864781 72:1.0488745 73:-0.26626649 74:0.23153423 75:-0.68856476 76:-1.499568 77:0.60833504 78:-0.89418599 79:-1.0178554 80:0.78350405 81:2.9983423 82:-2.915725 83:-0.6247001 84:0.1040791 85:0.64086802 86:-1.6354295 87:-0.153413 88:0.40391589 89:0.064378678 90:-1.0291907 91:-0.22974415 92:0.44084933 93:0.07155308 94:0.17593464 95:0.4585861 96:2.8753322 97:0.40900989 98:-1.7373272 99:-1.3982121 100:-0.60316294 101:-1.2263265 102:-0.95625213 103:0.33394874 104:-0.92016657 105:2.9746457 106:-2.1643589 107:0.41454406 108:-0.59736827 109:-1.4864551 110:-0.08272599 111:-1.8574855 112:-1.2619796 113:-0.71474617 114:0.14207974 115:2.4052084 116:-0.41247948 117:-1.0948668 118:-1.0200732 119:1.253302 120:0.065142456 121:-0.98819559 122:-0.99630891 123:-0.9754251 124:-0.20167264 125:-2.1940532 126:-0.89405736 127:-1.6787421 128:-1.5716429 129:-1.6638002 130:-0.60246486 131:0.29691639 132:-0.28218412 133:0.075563045 134:-1.6856056 135:1.5570486 136:0.10167049 137:0.41370711 138:1.1243836 139:0.78290773 140:-1.8073526 141:0.57962548 142:0.29114739 143:0.26138934 144:0.74077587 145:1.1845685 146:-0.66165475 147:-1.0304338 148:-0.80653477 149:-1.3951606 150:0.9530723 151:0.73211965 152:0.73514015 153:1.666859 154:0.28473001 155:-0.29193398 156:-0.96867065 157:0.61934786 158:-0.35909225 159:-0.71104854 160:-0.38004387 161:1.9629787 162:0.94222743 163:-0.30486956 164:2.3417939 165:-0.37361837 166:-0.19078482 167:-0.94198346 168:-1.0279637 169:1.9185859 170:-0.14371375 171:-2.0364098 172:0.59750025 173:0.016811808 174:-0.34910958 175:-0.19437068 176:1.4116321 177:-0.55557827 178:1.143002 179:1.5105049 180:-1.1877683 181:-0.13680978 182:0.0012863079 183:-0.72003803 184:0.30467635 185:-1.9486728 186:0.0093552572 187:-1.8716232 188:-1.1566454 189:0.32749003 190:1.2989231 191:-0.2689829 192:-1.1949711 193:0.19896889 194:0.19932139 195:-1.2418305 196:-0.9211565 197:1.0893289 198:-1.1511032 199:-1.4313845 200:-0.59626544 201:0.22215173 202:-1.7101074 203:-1.3611051 204:-1.312282 205:-0.44472616 206:-1.6933287 207:-0.95765118 208:0.13479342 209:3.2235717 210:0.082679369 211:1.6358587 212:1.4994564 213:-0.49813716 214:-0.91352656 215:-1.3435814 216:-0.30741945 217:-0.13268877 218:0.63651165 219:-1.6127298 220:-0.77529767 221:-0.26860052 222:2.1769023 223:-1.1705635 224:1.7159904 225:1.16521 226:-0.88625137 227:0.040801525 228:1.847992 229:0.55571282 230:1.5795227 231:0.16832074 232:0.11094468 233:0.5788775 234:1.9532925 235:1.1656815 236:-0.96758107 237:0.32693245 238:2.0395403 239:-0.028960473 240:-0.405071 241:-0.34403823 242:-0.04346848 243:-0.21872902 244:0.1342399 245:0.10825609 246:-0.45366361 247:-0.69689237 248:1.0533692 249:-0.70858588 250:-0.76079343 251:-0.48380633 
0.0011731746603543215 1:0.73472969 2:-0.11917887 3:0.79254689 4:0.9921582 5:-0.59203552 6:0.32095657 7:-0.81098444 8:-0.19632802 9:-0.45607922 10:0.24008459 11:-0.7423825 12:-0.77714519 13:-0.079046036 14:-0.31900716 15:0.31810465 16:0.52204971 17:-1.2514311 18:0.69724816 19:0.39896758 20:0.39443202 21:-0.60747065 22:0.36965766 23:-0.35049773 24:-0.73328373 25:0.080960753 26:-0.030655176 27:0.94272174 28:0.37826079 29:-0.013845234 30:-0.51848511 31:-0.47557215 32:-0.028612676 33:0.64353558 34:-0.88928584 35:-0.66718817 36:-0.016142385 37:0.43140713 38:0.89553864 39:1.6418437 40:-0.93224994 41:-0.50024336 42:-0.99091193 43:-1.0364085 44:-0.91945695 45:-1.5584155 46:-1.235735 47:-0.48317639 48:1.0397088 49:0.41556436 50:1.3112235 51:1.2183044 52:-0.87004316 53:0.81191724 54:-0.26189379 55:-0.94878397 56:-0.13010647 57:0.20250679 58:0.82482519 59:0.025129754 60:-1.8943946 61:-0.3283934 62:-1.149267 63:-1.1101945 64:0.13983785 65:0.77616785 66:-0.55835113 67:0.34294232 68:-0.2068254 69:0.077828557 70:0.14583453 71:0.71893067 72:-0.70329459 73:-0.31410177 74:-0.35333069 75:-0.81179927 76:-0.18648473 77:-0.71870559 78:1.0516278 79:-0.049846099 80:0.93732243 81:0.02422419 82:-0.034082237 83:-0.77923047 84:-1.5386916 85:0.093427898 86:1.7120025 87:0.50618584 88:0.53278809 89:1.2272927 90:-0.71294814 91:-0.92256173 92:-0.86927349 93:-0.7321487 94:-0.84368392 95:1.6946126 96:-0.044029369 97:-0.69882043 98:-0.41612937 99:-0.44944896 100:0.36146584 101:-0.20456595 102:-0.57068214 103:2.1071349 104:0.49840313 105:0.001249058 106:0.38357041 107:0.10212231 108:0.45706197 109:0.40761845 110:0.078833453 111:0.1973956 112:0.9092368 113:0.26367057 114:-0.87255672 115:-0.52948492 116:0.14104615 117:0.44188534 118:-0.59523979 119:-0.92424352 120:0.25442622 121:0.30352015 122:1.0044193 123:0.06224608 124:-0.88231204 125:-0.53182193 126:0.32561859 127:-0.70468442 128:0.22293795 129:-0.30322467 130:-0.0088779787 131:0.50382474 132:0.33196438 133:0.76548548 134:-0.30555186 135:0.50371445 136:-0.61662894 137:0.32617519 138:-1.3507392 139:-0.26475675 140:0.42573899 141:0.42569652 142:-2.0214086 143:-0.77327785 144:0.50713726 145:-0.64771719 146:-0.10789825 147:-0.38023439 148:0.11248043 149:1.0170132 150:3.8977348 151:-0.20949566 152:0.86782626 153:-1.2492994 154:0.39180967 155:0.029277763 156:-1.3171459 157:-0.7045681 158:-0.26150809 159:0.46474127 160:0.76803897 161:1.1391046 162:0.45956573 163:1.8954806 164:-1.148761 165:-1.4124764 166:-1.2732043 167:-0.065550118 168:0.58629712 169:2.1205864 170:0.4044682 171:0.47607575 172:-1.4635173 173:-0.76041192 174:-0.91566764 175:-3.2049542 176:0.43821499 177:1.2137218 178:0.040385419 179:1.5205497 180:-0.10388297 181:-0.70205208 182:-0.78472856 183:0.13238329 184:-1.2185873 185:-0.59906135 186:-0.20926509 187:0.060476264 188:0.45869116 189:0.30390367 190:-0.41562856 191:-0.352081 192:0.3014138 193:-0.77527512 194:-0.21503852 195:-0.50796299 196:-0.095475601 197:-0.3565022 198:0.050314559 199:1.0294155 200:-0.72655728 201:-0.36786153 202:0.047397395 203:0.30292078 204:-0.50010011 205:1.1513573 206:0.50374967 207:0.18244367 208:1.1687163 209:0.90001505 210:-0.63863961 211:-0.41734048 212:-0.61136584 213:-0.30824209 214:1.6502283 215:0.95885555 216:0.47017713 217:-0.12219131 218:-0.42019629 219:-0.22999874 220:0.35005584 221:-0.10475399 222:2.5336995 223:-0.27993142 224:0.023944202 225:0.34115384 226:0.70347492 227:1.7507612 228:0.095042708 229:-0.28057169 230:0.24115048 231:-0.73772365 232:0.62370211 233:0.37460508 234:-0.5546763 235:-0.48949788 236:0.89240937 237:0.53877992 238:-0.066171807 239:-0.93511622 240:-0.37232027 241:-0.94225545 242:-0.083528503 243:1.2388211 244:0.12766115 245:3.8637076 246:0.95920452 247:-0.3521307 248:-0.74635194 249:-0.17173718 250:1.0196711 251:-0.6060498 
0.0017121675240770317 1:-0.85815951 2:-0.7087058 3:1.4125333 4:0.59282907 5:0.23777214 6:0.45015497 7:-0.93949346 8:0.38759907 9:0.23687596 10:0.0055861198 11:-0.65275022 12:-0.19829036 13:0.61333037 14:-1.0941769 15:-1.8524142 16:-0.97180418 17:-0.56126935 18:-0.85138836 19:-0.30092859 20:-1.0009563 21:-0.18169107 22:-0.87554406 23:-1.7165197 24:0.2684499 25:-2.3926179 26:-1.2326378 27:-0.8755028 28:-0.12999428 29:0.65366063 30:-0.47655551 31:-0.03623228 32:0.13209343 33:0.7758329 34:-0.89683648 35:-0.021577069 36:0.2734845 37:0.25916422 38:-0.21532163 39:0.51471458 40:1.6647305 41:0.6574386 42:-0.5158949 43:-0.2358956 44:-0.34933553 45:-0.71496192 46:0.1268018 47:-0.069756814 48:0.40011184 49:-1.3398587 50:1.3155899 51:-0.89154978 52:0.56973411 53:-1.1041709 54:0.23508256 55:0.3698805 56:-1.7403601 57:-0.18144934 58:0.39428934 59:0.46681423 60:-1.1604323 61:1.2032192 62:0.071591768 63:1.6927323 64:-0.14901076 65:0.15309455 66:-1.0554373 67:-0.53007447 68:0.70909302 69:-0.037010057 70:0.23264844 71:-0.20729204 72:-1.7154898 73:0.59144202 74:1.4351731 75:-1.2914752 76:-1.0115066 77:0.47973783 78:-0.59355502 79:-1.6046699 80:-0.33317497 81:2.5540976 82:-1.2617789 83:-1.3650389 84:0.90801583 85:0.66736717 86:0.72456042 87:-0.80680152 88:0.37960998 89:-1.111887 90:0.33607378 91:0.022308207 92:1.0116172 93:-0.30694733 94:0.1368446 95:1.2066433 96:0.24675041 97:-0.41705675 98:-0.61995994 99:-0.858023 100:0.26990298 101:-0.6668915 102:-1.7499168 103:-1.6062296 104:0.025306875 105:0.25470505 106:-0.20148531 107:-1.3480494 108:-2.3611694 109:1.1818259 110:-0.14419227 111:-0.10138785 112:-0.69227211 113:1.0796823 114:1.3350095 115:0.67790059 116:1.3637738 117:0.030876159 118:-1.0260476 119:1.3239087 120:-0.47337635 121:-0.31919799 122:-0.96943867 123:-0.40151687 124:-0.27309347 125:-1.1060052 126:0.26107619 127:-1.5283529 128:0.27602546 129:0.49608901 130:-0.33619275 131:-1.1492588 132:0.2603165 133:-0.97529491 134:-0.51981878 135:-0.96931075 136:0.4487472 137:-0.4138736 138:-0.21229343 139:1.6549931 140:-1.0901607 141:-1.27654 142:-0.76895776 143:-1.2838324 144:0.28400477 145:-0.29980784 146:0.080321912 147:-0.34874531 148:-0.39840487 149:0.48483979 150:0.21322608 151:-0.87155041 152:-0.20133974 153:-0.77472786 154:-0.25996107 155:0.058982551 156:-0.24984275 157:0.61934786 158:-0.86084467 159:-0.55117807 160:0.45113315 161:0.65037954 162:-0.59723302 163:2.6877817 164:-0.3558949 165:-0.6066094 166:0.034977464 167:0.26557996 168:1.0501962 169:0.92751924 170:2.9272675 171:-0.84446223 172:-0.69172143 173:-0.55421728 174:-0.23033875 175:0.56395674 176:-0.83332646 177:0.43517273 178:-0.49169921 179:0.79341744 180:-1.1213153 181:0.0012984206 182:0.3888934 183:1.3511826 184:-1.0075027 185:-0.69910507 186:-0.73180835 187:-0.58549244 188:-0.74103024 189:2.3792447 190:0.10729047 191:0.84475203 192:-0.15850213 193:-0.50794072 194:1.2991858 195:-0.80091719 196:-2.5450851 197:-1.3221118 198:-0.3919521 199:-0.32465564 200:0.71544946 201:0.28580625 202:-1.070475 203:0.14221786 204:-0.34240757 205:1.2361079 206:-0.59516443 207:-1.0734971 208:0.38072946 209:1.7339933 210:0.4877445 211:-0.52346774 212:-1.1682736 213:-0.4972762 214:-0.12720929 215:0.074058344 216:-0.92863216 217:0.54531348 218:0.028534638 219:-0.15854079 220:0.087820888 221:-1.1908909 222:0.010078252 223:-1.1149831 224:1.7087435 225:2.6973724 226:-0.15591725 227:-1.6119057 228:-0.2447357 229:-0.62983493 230:-1.8683462 231:-0.78761581 232:-1.097965 233:0.38952735 234:0.64675109 235:0.38745647 236:-0.037780343 237:0.21887323 238:0.31948656 239:-0.18881221 240:2.7770244 241:0.58470446 242:-0.40784745 243:-0.70914925 244:0.26831474 245:-0.058246005 246:0.36959391 247:-0.9885724 248:-0.67341223 249:0.56695284 250:0.92653449 251:-0.77242713 
-0.00063923380978876535 1:-0.26430687 2:1.5500656 3:-0.26609891 4:-0.10427858 5:-0.078689868 6:0.32095657 7:-0.12294184 8:0.016031405 9:-2.5497731 10:-0.005723058 11:-0.14833442 12:-0.45190095 13:-1.7415239 14:0.47433344 15:0.088502915 16:2.2687387 17:-0.3525412 18:-1.535047 19:-0.0020676609 20:0.64999103 21:0.79036194 22:-1.9770934 23:1.6101557 24:-0.35778076 25:0.45517174 26:-1.1964725 27:-1.282385 28:-0.27250865 29:-0.11891044 30:2.3728434 31:-0.0076121076 32:-0.041167097 33:-1.1681561 34:-2.0383511 35:2.6700326 36:-2.0812682 37:-0.5332631 38:-0.95018453 39:-0.36748105 40:0.21161226 41:-0.10968231 42:1.5050325 43:-1.0109379 44:0.57835937 45:-1.8603336 46:1.2014236 47:0.60136942 48:1.7018559 49:0.39748619 50:-0.70566293 51:2.8786437 52:0.52583333 53:0.048533861 54:1.2528119 55:0.38181954 56:-0.53381989 57:-0.9937984 58:1.5330744 59:-1.362454 60:1.4117963 61:-0.9390962 62:0.43232574 63:2.7249074 64:-1.2657316 65:2.1695188 66:0.55956247 67:-2.061137 68:0.03112612 69:0.54949734 70:-1.1551785 71:-0.23198146 72:0.3517858 73:-1.6881134 74:-0.038600066 75:-0.72413977 76:-0.77336147 77:1.0914138 78:-1.6539474 79:2.0772354 80:-0.59340724 81:-0.76576638 82:-0.83682697 83:1.0155296 84:0.82323364 85:-1.2621812 86:0.074696932 87:0.63977454 88:-1.6602918 89:0.91102716 90:-0.11171943 91:0.78376965 92:0.61402768 93:-0.36838437 94:1.2908052 95:0.19655824 96:-0.40270646 97:-2.0405233 98:0.75072083 99:1.025806 100:2.2745359 101:0.47468126 102:1.6807527 103:-1.1064582 104:1.6137839 105:-1.2879216 106:0.69887211 107:-1.7267538 108:-1.1948229 109:0.22955238 110:0.29755239 111:2.6421139 112:2.8012055 113:0.59065888 114:-1.5976933 115:0.41042985 116:-0.70346191 117:1.6179812 118:1.0636129 119:-1.8265724 120:-1.0343942 121:2.063996 122:-1.176074 123:-0.76155695 124:-0.54731707 125:0.85395842 126:1.3127923 127:0.64938901 128:-0.13126258 129:-0.54267588 130:0.31260975 131:0.65944812 132:1.2803247 133:-0.56763464 134:3.0512275 135:0.7263468 136:0.090541065 137:-2.2631211 138:-0.59269223 139:-0.47650402 140:0.61574679 141:-0.77801072 142:0.6038496 143:0.77992038 144:1.4247543 145:1.6315222 146:1.706027 147:0.71959922 148:1.0018058 149:0.92612319 150:-0.96315359 151:2.7301682 152:0.2682437 153:-0.65182114 154:-0.7748257 155:1.0418992 156:0.050320714 157:1.3925534 158:-1.0585934 159:1.248725 160:-0.41322072 161:-1.0207711 162:-1.3605346 163:-1.7356515 164:-0.78133144 165:-0.49640859 166:1.9994712 167:0.46868067 168:1.9670483 169:-0.29663938 170:0.076923557 171:2.1297606 172:-1.1340203 173:0.16234157 174:1.0531423 175:-1.3803359 176:-1.0193093 177:0.96718781 178:-0.60316142 179:-2.1064354 180:1.3515509 181:0.64809385 182:-1.2120659 183:1.6662748 184:-0.35320716 185:0.80413096 186:-0.23177377 187:0.85031917 188:-0.49425122 189:-1.138772 190:-2.2471181 191:-0.26479651 192:-0.60079188 193:-0.99911239 194:-1.0049367 195:0.99802515 196:-0.023180742 197:0.76653198 198:0.64715962 199:-0.86862515 200:3.8174065 201:-1.5646507 202:-1.0195235 203:0.26872275 204:3.4915478 205:-1.6413367 206:2.3789494 207:0.10399265 208:-1.15533 209:1.3150411 210:-0.0029221851 211:2.751816 212:-1.6239074 213:-0.28131024 214:-0.36875611 215:-0.18789594 216:0.064496339 217:-1.9738004 218:-1.4308708 219:0.24050689 220:-0.036796698 221:0.43878185 222:-0.48015241 223:0.21147853 224:-0.55863718 225:-0.49860142 226:-0.8246183 227:-1.1074778 228:-1.5841943 229:0.038191872 230:1.2813975 231:1.6886949 232:-1.94201 233:-1.159212 234:0.027573234 235:1.0750583 236:-0.55950813 237:1.4848993 238:-2.0443921 239:0.040073895 240:-0.59628815 241:1.6828212 242:-2.5935765 243:1.8700616 244:-1.1695242 245:-0.135679 246:-0.79779925 247:1.2546733 248:1.1803366 249:-0.46063717 250:-1.8304016 251:0.71338468 
-0.001559275395975398 1:-0.087110805 2:-0.66855173 3:-0.041250578 4:2.1132623 5:-0.98101001 6:-0.46346644 7:0.67739758 8:-1.651403 9:-0.23708258 10:-0.82288908 11:1.3103805 12:-1.0935224 13:-0.90103282 14:-1.5337507 15:0.26899712 16:0.40681999 17:0.41598856 18:-0.14063601 19:0.31258325 20:1.8127063 21:0.21167961 22:0.22708995 23:0.94798738 24:0.0061451246 25:-0.096119081 26:0.95517962 27:-0.14233099 28:1.3111879 29:-0.69396713 30:4.4878478 31:-0.97373578 32:-0.88579132 33:-1.3045085 34:0.41857 35:1.2381389 36:0.47504915 37:1.1259153 38:-0.51621921 39:0.43057404 40:0.82951627 41:0.67514224 42:-0.1252605 43:-0.7055725 44:1.3757655 45:-0.27423377 46:-0.52633622 47:-0.61794324 48:-1.8004261 49:2.0857632 50:-0.47154121 51:-1.3984089 52:-1.5401535 53:-1.1260637 54:2.5679215 55:0.044841254 56:-0.89991745 57:2.8369427 58:0.62934553 59:0.40740749 60:-1.2932044 61:-1.0526741 62:0.067335433 63:-0.38473977 64:0.63335602 65:1.9995303 66:3.0708391 67:-0.29692071 68:-0.2068254 69:-0.50029495 70:0.053109045 71:0.64878171 72:-0.89970664 73:-0.068272214 74:0.70169227 75:-1.0825925 76:1.5520022 77:0.13923975 78:0.46652659 79:0.66836094 80:-0.32051051 81:-0.79371982 82:-0.029346854 83:0.43175532 84:-0.056227799 85:-0.13731407 86:1.0577044 87:-0.19193481 88:-0.9892452 89:-1.4394027 90:1.2373529 91:0.55064978 92:-1.2424502 93:-0.35601928 94:0.012263101 95:-0.15160491 96:-0.83261135 97:1.5932038 98:1.4002734 99:1.6636362 100:0.98578079 101:-0.73069526 102:-0.28887034 103:-0.79065776 104:-0.50475763 105:-2.0710487 106:0.70638106 107:1.6250612 108:0.032607193 109:-0.90779546 110:0.40489266 111:2.0355806 112:0.21131304 113:2.2514521 114:-0.045703185 115:-0.56700815 116:0.84585321 117:1.6488519 118:-0.48886856 119:0.048960622 120:0.68531149 121:0.10935238 122:1.6813275 123:0.76238988 124:0.41140926 125:-0.19629673 126:1.5339184 127:-0.080240104 128:1.5285734 129:1.8416775 130:0.74733351 131:-0.91990647 132:0.059793134 133:0.29422545 134:1.237112 135:1.1316826 136:-1.0077072 137:-0.4452609 138:1.0416069 139:-1.6597864 140:-1.2378397 141:1.0980774 142:0.9696723 143:-0.21442006 144:0.65113012 145:0.44808161 146:0.97118159 147:0.83115121 148:0.091191463 149:-0.36716587 150:-0.71995019 151:-1.0401267 152:-1.623461 153:-0.18777342 154:-0.89581094 155:-1.2522646 156:-0.59573394 157:0.64271404 158:0.64514786 159:-0.52651932 160:1.3180606 161:-0.92361953 162:-0.74830887 163:-0.03828083 164:-0.77531185 165:-0.2742955 166:0.18084863 167:1.7902589 168:0.081481168 169:-0.42031201 170:0.28164139 171:-0.1840112 172:-0.8558575 173:0.20338261 174:-0.7969695 175:-1.0487985 176:-0.84039622 177:-0.15131226 178:-0.18678496 179:-0.35421245 180:-1.2203177 181:-0.060098745 182:0.25082951 183:-0.78933709 184:0.91549 185:1.8422365 186:-0.77471978 187:2.2442117 188:2.2568689 189:-2.1821273 190:1.4049085 191:-0.81119802 192:1.1808599 193:0.064213876 194:0.24877227 195:2.6187115 196:0.0072567052 197:1.3312016 198:0.11971457 199:0.82678498 200:-0.75945964 201:-0.13408807 202:0.96925413 203:0.33049657 204:1.8201669 205:0.88640038 206:-0.011644905 207:1.8185988 208:0.56692137 209:-0.82912613 210:-0.21712379 211:1.2553497 212:-0.68705691 213:-0.88567593 214:1.7777699 215:-0.74386343 216:-0.66823839 217:-0.31920018 218:-0.22525856 219:0.35513117 220:-0.43087618 221:0.49977518 222:-1.5987165 223:3.0854705 224:-0.81033736 225:-0.6703211 226:-0.02097886 227:-1.120093 228:-1.2203272 229:-0.59168202 230:-1.6525 231:-0.17583795 232:0.23838717 233:-0.42960917 234:-0.47469985 235:1.0711701 236:0.43941597 237:0.95329025 238:-0.050548415 239:-0.36661288 240:-0.53404863 241:0.9980554 242:-0.59137354 243:-1.1421741 244:-0.11501846 245:-0.53853238 246:-1.3951408 247:0.42448519 248:-0.097973896 249:-0.39486825 250:0.99303399 251:-0.90601003 
-0.0003098949419275478 1:-0.15403998 2:-1.2234282 3:-0.33740182 4:-1.2154686 5:-0.97552761 6:2.1768081 7:-0.36802359 8:-0.79305227 9:1.8230396 10:1.1719007 11:-0.73102909 12:-0.91732172 13:-0.85125483 14:1.6413279 15:2.6834549 16:0.98727741 17:0.68637296 18:0.4286218 19:0.93164922 20:-0.25767229 21:0.13475433 22:-0.44831192 23:0.70457816 24:1.4164019 25:0.73357038 26:-0.026889309 27:0.21809155 28:0.61534749 29:-0.65385986 30:-0.268904 31:-0.4299161 32:0.57404714 33:-1.1681561 34:0.29290273 35:-0.63248931 36:-0.29634354 37:2.152597 38:0.033308227 39:0.43927491 40:0.15055747 41:1.0246189 42:-0.40126706 43:1.9348109 44:-0.92187104 45:1.2279489 46:-0.49062447 47:1.1630765 48:1.5291444 49:-0.63774143 50:0.3681425 51:-0.80884568 52:0.54699344 53:0.28726335 54:-1.3988405 55:-0.23824025 56:0.23594576 57:-0.79880622 58:-0.97983948 59:-0.1867477 60:3.3201378 61:-0.55705637 62:-0.11674147 63:-0.37006998 64:0.58146637 65:-1.2820245 66:-0.28526302 67:1.2259963 68:0.033158755 69:0.29346397 70:-0.0502274 71:1.0936911 72:1.4562104 73:2.250581 74:1.0967095 75:1.3872725 76:0.67161716 77:0.55445651 78:-1.0924657 79:-0.42595812 80:2.3218125 81:0.077782873 82:0.60869736 83:1.0278192 84:-0.55650132 85:0.12326713 86:-0.95676289 87:1.5387007 88:0.58010189 89:0.56374311 90:-0.35156646 91:-0.29085312 92:0.76041576 93:0.22596886 94:0.13084183 95:-0.31649764 96:0.38365932 97:1.2775547 98:-0.50017895 99:-0.74236775 100:0.10052732 101:0.27097469 102:0.94023188 103:0.15035322 104:0.43208708 105:-0.32071049 106:1.9049722 107:-0.5450299 108:0.61114048 109:-0.60380263 110:0.83411957 111:-0.19922312 112:0.21386306 113:-0.29150264 114:2.3597952 115:1.5259157 116:-1.0722764 117:0.12507251 118:0.73229232 119:1.6499801 120:0.53727149 121:-0.93684573 122:0.23377084 123:0.92313476 124:1.8308839 125:0.43046793 126:-0.47241646 127:0.87431524 128:0.79759257 129:-0.06211773 130:-0.14852054 131:0.64545337 132:-0.26199758 133:-0.42043428 134:-0.92481203 135:-0.23328903 136:0.86311659 137:-0.32650437 138:0.41834264 139:-1.1866986 140:0.0035790286 141:1.2757083 142:1.4922638 143:0.77092025 144:0.94922923 145:1.1365307 146:1.8426257 147:-0.46509875 148:0.71148809 149:-0.87363897 150:0.56256826 151:0.69474152 152:0.35365159 153:0.63500468 154:1.4809455 155:1.2927438 156:-0.67445231 157:-0.25846112 158:0.41642023 159:0.94634341 160:-1.0847379 161:1.4524782 162:-0.52708892 163:-0.71878705 164:2.0057652 165:0.18675522 166:0.30565818 167:-0.91588407 168:-1.7944386 169:-0.66688935 170:-0.97615257 171:0.50150371 172:3.2214875 173:1.3370718 174:-0.21901686 175:1.1288722 176:0.19668993 177:-0.60862175 178:-0.21778434 179:-0.598455 180:-0.52322616 181:-1.2787079 182:-0.67539134 183:-0.31960925 184:1.5935029 185:-0.87513786 186:0.79919064 187:0.98077305 188:1.8831153 189:-1.5343026 190:2.2922511 191:-0.8329798 192:0.51415444 193:0.85690621 194:-1.1794961 195:-0.71195534 196:1.0607999 197:1.2750637 198:0.64166824 199:-0.87825702 200:-0.66269759 201:0.67877713 202:0.39933482 203:0.078472535 204:-0.35913317 205:-0.40003163 206:-0.68522934 207:-0.048886019 208:-0.41987353 209:-1.0948939 210:-0.67452662 211:-0.2352392 212:1.7827856 213:0.20833278 214:-0.073159314 215:-0.40142319 216:0.9612852 217:-1.1193118 218:1.7560268 219:-0.74498027 220:-0.42206425 221:1.5739354 222:-0.48167086 223:-0.79927996 224:-0.95792808 225:0.97534345 226:-1.4898707 227:0.86110183 228:0.52682517 229:-0.83380013 230:-0.73801508 231:-0.84375751 232:0.54607974 233:-1.2022537 234:0.19214967 235:-0.23897875 236:-0.66460521 237:0.49853761 238:0.012221916 239:-1.1358044 240:-0.34105116 241:0.20221457 242:-0.13263434 243:-2.7438722 244:-2.1984841 245:-0.53784886 246:-0.051826536 247:-1.8378788 248:0.17622705 249:-0.69020245 250:-0.14143397 251:-0.62172067 
-0.0019750484943249261 1:0.64540674 2:-0.68960362 3:0.095550532 4:2.2540599 5:-0.41687459 6:0.57877041 7:1.3225263 8:-1.0417589 9:0.99202489 10:0.12828402 11:-0.1213013 12:0.91612061 13:0.79980692 14:0.94273834 15:-0.54465662 16:0.90621596 17:0.098296393 18:-2.6549509 19:0.037288087 20:0.17037968 21:1.8512643 22:1.9743686 23:0.74263757 24:0.49431234 25:1.1595421 26:1.8182991 27:-1.4144618 28:-0.35272558 29:0.022242508 30:-0.49725567 31:0.79809564 32:-0.42516083 33:0.96032618 34:0.4409082 35:1.9081141 36:0.53756696 37:1.2120718 38:-0.64492612 39:-0.1189286 40:-0.092910561 41:0.76289442 42:0.70725799 43:-0.73490456 44:0.14265228 45:-1.3042045 46:0.71967299 47:-0.84088648 48:-0.84829056 49:0.21690196 50:-0.70319756 51:-0.51906692 52:0.0068485997 53:-0.79959716 54:1.8071421 55:-0.09179949 56:-0.14055281 57:2.8984146 58:-1.1680898 59:1.4326767 60:0.13774921 61:-0.97238923 62:0.23108929 63:-0.83257408 64:0.32230136 65:1.5853677 66:0.40796988 67:-0.78195551 68:-1.6377668 69:-0.21533797 70:0.45755424 71:0.49532045 72:0.08738658 73:0.95443855 74:-0.9688226 75:1.3301388 76:1.4174538 77:0.28485759 78:-0.17177037 79:-0.60633186 80:1.28208 81:-0.80531088 82:-0.66458011 83:1.1432561 84:0.81936659 85:-0.28405592 86:0.060352852 87:0.44676532 88:1.6082799 89:-0.033944683 90:0.60540491 91:0.33336139 92:0.0063358607 93:-0.56811562 94:0.24083659 95:0.38120483 96:-0.53416774 97:-0.64381729 98:0.6968795 99:-0.62682563 100:-0.2102864 101:0.33374278 102:-0.53811165 103:-1.0927785 104:0.52377905 105:-0.3946986 106:0.93508286 107:-1.4893108 108:1.2848697 109:-1.0737666 110:0.056640685 111:-0.43407883 112:0.12620433 113:-1.0789913 114:0.98701297 115:-0.87819816 116:-0.40966434 117:0.099578099 118:-1.0567432 119:0.71148528 120:-0.51460661 121:1.5632878 122:-0.35557552 123:-0.19336515 124:-0.51643942 125:0.087014041 126:1.8139374 127:0.21299705 128:0.33492675 129:-0.34935022 130:0.0030152842 131:0.85445766 132:1.0357445 133:-0.13165107 134:1.2468843 135:-0.041510325 136:-0.52885166 137:-0.30239784 138:-0.67213147 139:0.42864359 140:0.35025071 141:-0.34766226 142:1.3544789 143:-0.71906463 144:1.3041793 145:0.77539508 146:-1.0125144 147:1.3453485 148:0.30069083 149:-0.87363897 150:0.97136646 151:1.0113491 152:0.36911244 153:-0.3289962 154:1.1095032 155:-2.2068803 156:0.075794844 157:-0.6589524 158:3.0628739 159:-0.22137722 160:-0.32402426 161:-0.036429447 162:1.2633673 163:0.10315375 164:1.0733801 165:-0.11501341 166:0.44825743 167:1.2625767 168:-0.86605017 169:-0.919891 170:0.14915404 171:-0.31294256 172:-0.24723263 173:0.7691347 174:0.3313398 175:2.1784075 176:-0.92863784 177:-0.38335826 178:3.2555876 179:0.47259207 180:2.2341349 181:0.056703383 182:0.14045507 183:-1.5921198 184:1.7475442 185:-0.0089188213 186:1.6750099 187:-0.7754275 188:-0.30716351 189:-0.11956807 190:-0.64437067 191:0.35082194 192:-0.36651823 193:0.64544219 194:-0.057356718 195:-0.53761057 196:1.2263341 197:-0.41510137 198:0.68818339 199:-1.0234103 200:0.67539441 201:1.2477624 202:0.53196304 203:0.85026613 204:0.21265504 205:0.10375473 206:0.44287323 207:-0.16302864 208:0.99164486 209:-1.4163137 210:-0.17436256 211:1.5030119 212:-0.31600541 213:-0.023614717 214:0.089325812 215:0.11669606 216:-2.2360308 217:0.3027196 218:0.5708878 219:0.38396638 220:0.33803032 221:-0.59979896 222:0.13512237 223:0.40447014 224:0.32120465 225:-1.5851536 226:-0.58653075 227:-0.4667597 228:-0.30031037 229:-0.79551137 230:-0.069509061 231:0.29039508 232:-0.22487415 233:0.29518854 234:-0.29246725 235:0.92638722 236:-0.084334563 237:0.5939291 238:0.33802982 239:-1.5962318 240:-0.52407167 241:0.56727124 242:0.36612688 243:0.24844504 244:-0.90860588 245:-0.23638421 246:-1.03647 247:-1.0677043 248:1.2126088 249:-1.9267595 250:-0.21406993 251:0.37462772 
-0.0011188934983638219 1:0.0028582729 2:0.40741452 3:-1.1248873 4:0.9996563 5:-1.2173393 6:1.2265842 7:0.60842797 8:-0.20798039 9:-0.09301866 10:-0.08763668 11:0.61847626 12:-0.48631375 13:-1.2120013 14:-0.72987094 15:1.559935 16:-0.085898554 17:1.084501 18:1.1169334 19:0.63129274 20:1.7682574 21:-0.95730333 22:0.0055098376 23:0.69104546 24:2.0579109 25:-0.28933381 26:-0.59930113 27:-0.0017461034 28:0.48446593 29:-0.88734462 30:-0.25650103 31:-0.85698517 32:0.60539745 33:-0.76153989 34:-1.4079865 35:-0.83688099 36:-0.25228348 37:0.082134283 38:0.10756701 39:0.26129196 40:0.083636848 41:0.97133778 42:-0.26943441 43:0.82516771 44:-0.22893733 45:0.17674697 46:2.1830766 47:0.28741742 48:0.52762566 49:0.084210855 50:-0.19642888 51:-0.6385405 52:-1.5155739 53:0.12964737 54:2.0484703 55:1.1373222 56:1.8794872 57:-0.5172006 58:-1.6213406 59:-0.48843388 60:0.73359957 61:-0.67521322 62:-0.011579318 63:0.73491972 64:-0.58282184 65:-1.000519 66:0.74432496 67:0.21012596 68:-0.013458551 69:-0.89167497 70:0.012973389 71:0.052946611 72:0.86175251 73:2.2474018 74:0.44552731 75:1.9414088 76:0.78977791 77:0.35345225 78:-1.4045957 79:0.63218011 80:1.691556 81:0.15665953 82:0.080756208 83:-0.077370633 84:0.11737941 85:-0.90757963 86:-0.84779168 87:0.59711746 88:-0.061026824 89:1.6435628 90:-0.46351476 91:-0.68148531 92:-0.4868101 93:-0.32902826 94:1.3486358 95:1.4918177 96:-0.8247618 97:-0.82581798 98:1.0244737 99:1.0737532 100:-0.32772436 101:1.3566211 102:0.90257828 103:-0.44553216 104:-0.058173877 105:0.038427521 106:0.3018118 107:-0.76374387 108:-0.044018707 109:0.49610041 110:1.147417 111:-0.62584787 112:0.9771025 113:-0.61660036 114:0.0027791712 115:0.24234363 116:-1.1485409 117:1.2788072 118:2.4006721 119:-0.01937337 120:-0.92627449 121:-0.44223016 122:-0.41908779 123:2.0638386 124:0.21530582 125:1.6207433 126:-1.261655 127:1.0181716 128:0.28169243 129:-0.21081334 130:-0.16171837 131:-0.39194848 132:-0.73722824 133:-0.89579661 134:0.55886578 135:0.293845 136:2.6181783 137:0.20663229 138:0.70642908 139:-1.1514293 140:1.7881305 141:0.37409813 142:-0.41376492 143:0.39274101 144:0.25611935 145:0.83829306 146:0.34546803 147:1.1153454 148:-0.037190469 149:-0.56141935 150:-0.16955739 151:0.03394142 152:-0.56790058 153:0.01351063 154:0.22570408 155:1.5031372 156:0.21860012 157:-0.14096023 158:-0.29466506 159:0.79350693 160:-0.58207756 161:-0.079693005 162:-0.54500324 163:-0.93561272 164:-0.32003794 165:-0.28099631 166:0.67672825 167:-0.065708296 168:0.29291322 169:-1.1977096 170:-1.3034251 171:1.0501699 172:0.15720579 173:1.7587164 174:1.5804008 175:0.65642388 176:-1.0743985 177:0.081768606 178:-0.5466006 179:-1.2877543 180:0.55986875 181:-0.43204873 182:-1.2083905 183:-0.21389471 184:-1.4503486 185:0.88992862 186:-1.2023971 187:-0.28174523 188:0.86346473 189:-1.009306 190:0.8032383 191:-1.2491313 192:1.6469995 193:0.85706087 194:-1.3134059 195:1.225061 196:0.48215669 197:1.2438314 198:1.2824194 199:-0.44670077 200:-0.086918859 201:1.1944249 202:0.10669536 203:-0.71222728 204:-0.11941353 205:-1.220663 206:-0.6328234 207:-0.28084222 208:-1.1092508 209:-0.12569675 210:-1.1627876 211:-1.0741636 212:1.0876177 213:-0.37004274 214:-1.3109828 215:-0.4544462 216:0.082551783 217:0.17672703 218:0.018865525 219:-0.36537845 220:-1.2844848 221:1.7913556 222:-0.47878581 223:0.38730075 224:-1.0837584 225:0.2859748 226:-0.58726027 227:0.39217366 228:-0.5838621 229:0.57364582 230:0.66510052 231:0.32837839 232:-0.51585202 233:-1.0392003 234:0.52112297 235:0.4616065 236:-0.98492999 237:-1.3563821 238:-0.5021184 239:0.53157736 240:2.1226373 241:1.1824806 242:-0.81602386 243:0.26793987 244:0.20828436 245:-0.44428806 246:-0.35352748 247:-0.48095736 248:-0.48677504 249:0.030611873 250:0.48801872 251:-0.29054107 
-0.00085880587347891097 1:0.83040359 2:2.4176108 3:-0.62964605 4:-0.56279407 5:-0.53452205 6:-0.082728308 7:0.21972305 8:0.20030247 9:0.5636467 10:1.4061655 11:-0.17643929 12:-0.91904613 13:-0.39844256 14:0.83446008 15:0.29914015 16:2.0175163 17:0.50351427 18:-0.14852015 19:0.72422281 20:-1.2031921 21:0.74214606 22:0.66307111 23:-0.86877285 24:0.58334912 25:0.63095479 26:0.51803601 27:-0.3568762 28:-0.010126767 29:-0.78594686 30:-0.56066377 31:-0.062289854 32:0.61997678 33:0.6061994 34:-0.77419271 35:0.026336487 36:-1.1908033 37:0.23326032 38:-0.32238012 39:-1.4328763 40:0.47376275 41:-0.32965006 42:1.5110815 43:0.88063873 44:-0.68359682 45:0.927379 46:1.778883 47:1.375829 48:-0.89926364 49:0.83964779 50:-0.48101658 51:-0.25866389 52:0.54621218 53:-0.75129833 54:-0.59199142 55:0.060275123 56:0.93170333 57:1.1316139 58:-1.0287813 59:-0.38282433 60:0.43993572 61:0.045938471 62:0.77099196 63:1.2280903 64:-0.82612539 65:-0.83841393 66:-0.17022004 67:0.071600271 68:-0.72588028 69:-0.36250764 70:1.3758753 71:1.3810099 72:0.7068206 73:1.0945547 74:0.82758122 75:0.016650053 76:0.66257399 77:-0.14858895 78:-0.7347024 79:0.48555993 80:0.94022678 81:-0.078309212 82:0.59423174 83:-0.74600633 84:0.82323364 85:0.55958056 86:0.018963063 87:0.11102237 88:2.2790847 89:-1.2716029 90:0.41604069 91:1.8874848 92:1.3035762 93:-0.72957481 94:1.5974867 95:-0.754571 96:0.142193 97:0.88493516 98:-0.35909438 99:-0.46125476 100:-0.35509947 101:0.051962372 102:0.19518201 103:0.081993819 104:0.30205287 105:-0.70442792 106:0.29894654 107:-0.56172863 108:0.48659627 109:-0.24845132 110:-0.7895638 111:0.66544712 112:0.0019008293 113:1.0947864 114:3.231878 115:0.88940867 116:-1.1085852 117:0.13570963 118:0.62207338 119:1.2985481 120:-0.6922357 121:0.44383338 122:1.4461147 123:0.41208089 124:-0.23951005 125:0.048120429 126:-1.3376509 127:-0.41276262 128:0.31939395 129:-0.64708327 130:1.0364463 131:1.5046568 132:0.083043293 133:-0.53473763 134:-0.11515679 135:1.2844422 136:2.0265123 137:-0.37340228 138:-0.17998227 139:-0.56993548 140:1.0291063 141:0.46638431 142:-0.48229726 143:0.45664965 144:0.022480739 145:-0.48973871 146:0.25984649 147:0.14295982 148:0.55705584 149:-0.87727457 150:-1.1258845 151:0.95459361 152:-0.20867565 153:-0.45415303 154:1.0543959 155:-0.37115918 156:1.3723739 157:0.55033807 158:-0.23963003 159:1.3172333 160:-0.45583393 161:0.31800629 162:0.26987889 163:0.41748022 164:-0.35787537 165:1.8896319 166:1.5615976 167:-0.16048863 168:-0.40667119 169:-0.41222075 170:0.34108187 171:0.0098770589 172:0.32832006 173:0.50544962 174:1.1013376 175:-1.2430582 176:-0.1788037 177:0.0041682155 178:-0.70188576 179:0.13936244 180:-0.66214937 181:-1.2772786 182:-0.66127604 183:-2.0492055 184:0.2073743 185:-0.086915781 186:1.6030119 187:0.29658724 188:-0.64595743 189:-0.48668676 190:0.51398507 191:-0.35900584 192:0.02239329 193:0.28323073 194:-1.2271111 195:-0.92658904 196:0.47354828 197:-0.57020566 198:0.058042237 199:-0.95943482 200:0.94848901 201:0.84994203 202:-0.64804731 203:-0.076695006 204:-0.50684091 205:-0.93901281 206:1.0257818 207:1.1065094 208:-0.53523053 209:-0.21427609 210:-1.0595622 211:0.17414531 212:0.83757275 213:1.3439634 214:-1.1611318 215:0.037242188 216:0.09884122 217:-0.46186654 218:1.05489 219:0.3205141 220:-0.89220845 221:1.134801 222:-0.18473852 223:-0.17960572 224:0.94213903 225:0.90843228 226:-1.3900154 227:-0.54970183 228:-1.2612139 229:0.33899979 230:-0.50302204 231:0.54700813 232:-0.13947572 233:0.17830549 234:0.40839283 235:0.029511152 236:-0.99687195 237:1.2047995 238:-0.25258696 239:-0.24330688 240:-0.49429013 241:0.51435399 242:-0.52470819 243:-0.12389291 244:0.20271952 245:-0.34770024 246:-0.48049014 247:-1.3910212 248:0.037118028 249:0.055569569 250:-0.2649583 251:-0.77946173 
-0.0015805586291254162 1:0.68390638 2:0.084553074 3:-0.69180935 4:-0.44116524 5:1.0100663 6:0.20152274 7:1.0749256 8:-0.092519667 9:2.0276339 10:1.4124211 11:0.61442147 12:-0.9623825 13:-0.48540331 14:1.0795045 15:0.29914015 16:0.083607309 17:0.66615848 18:-0.037253557 19:1.4038857 20:0.88514457 21:0.73722357 22:0.38684171 23:-0.017753665 24:0.65060302 25:2.1524247 26:1.1471739 27:1.3920775 28:1.7078174 29:-1.3033805 30:-0.215809 31:-0.14527756 32:-1.2973953 33:-0.70351475 34:0.78389428 35:0.1777871 36:-0.3798666 37:-0.18351056 38:-0.55879964 39:-1.4653891 40:0.39202254 41:0.79157772 42:0.069251182 43:1.18792 44:0.39319511 45:1.4615509 46:0.36215067 47:0.77373204 48:0.31743877 49:-0.51186993 50:1.2301334 51:-0.39902363 52:0.14101491 53:-0.32874216 54:-0.71303622 55:-0.51135062 56:0.72826041 57:-0.47507994 58:-0.93461504 59:1.0899303 60:0.14365458 61:0.16552625 62:1.5743848 63:-0.48331861 64:0.1947865 65:-1.1965441 66:0.3853037 67:0.67077002 68:-1.1947857 69:-0.453827 70:0.47188485 71:-0.20729204 72:1.2369612 73:1.2514931 74:0.91368973 75:2.0542306 76:-0.10904322 77:-0.47235091 78:0.037801118 79:1.3488064 80:0.52019292 81:0.54283661 82:0.16705262 83:-0.43222049 84:0.65314193 85:-0.63369349 86:0.24720914 87:0.89642848 88:-0.11616687 89:-1.0077074 90:0.74697158 91:0.38456887 92:0.65921304 93:0.044933068 94:2.1371477 95:-0.45324564 96:-0.067095141 97:1.8181924 98:-0.058514731 99:0.62110083 100:-0.21369266 101:0.89732773 102:-0.50941975 103:-1.1456407 104:-0.81460366 105:-0.11673456 106:-0.45688834 107:0.44777909 108:1.5651665 109:0.0093468426 110:0.34480505 111:-0.08345517 112:-0.55350498 113:0.17388853 114:1.5155366 115:0.27694232 116:-0.86753941 117:0.11088582 118:-0.23952988 119:1.0149337 120:-0.12122427 121:0.19611112 122:1.4214014 123:0.18147442 124:0.10905719 125:0.36871355 126:0.50425812 127:-0.64685251 128:-0.15633821 129:-0.72414434 130:0.177631 131:0.50103016 132:0.14873055 133:0.87827923 134:0.44505524 135:1.0154276 136:0.39792283 137:0.17767191 138:0.25935413 139:-0.78595439 140:0.2793435 141:2.5029869 142:-0.74026578 143:0.4002733 144:-0.13800773 145:0.51481113 146:0.06086038 147:-0.60352483 148:1.0422149 149:-0.95194496 150:-0.6066353 151:0.99808816 152:0.0064754567 153:1.848181 154:1.6685477 155:-0.24478649 156:-0.063640658 157:-0.60043925 158:-0.53718266 159:0.66394895 160:-1.4753988 161:0.027795879 162:-0.33730446 163:0.11459159 164:0.95515114 165:0.27900017 166:0.53077041 167:-0.25172577 168:-0.14109931 169:-0.41963774 170:-0.55423792 171:0.086970036 172:1.3919381 173:-0.084687984 174:-0.15276652 175:0.59150916 176:0.97857824 177:-0.66934276 178:-0.74626965 179:0.46194059 180:0.31395898 181:-0.77439189 182:-0.049763282 183:-0.87423412 184:1.5626703 185:-0.38778988 186:1.0534631 187:1.7041776 188:0.31249683 189:0.32749003 190:0.1017653 191:-0.56369787 192:-0.46141791 193:1.4297877 194:-0.97848569 195:0.20865912 196:0.97184104 197:-0.23092791 198:0.78533844 199:0.10180626 200:0.44210389 201:0.74999113 202:1.1462871 203:-0.67575444 204:0.69955132 205:-1.3629753 206:-0.030224438 207:0.092323867 208:-0.41364489 209:-0.13045589 210:-0.61535424 211:0.19741505 212:1.0160913 213:1.1427952 214:-0.63881562 215:-1.5189217 216:0.42805654 217:-0.49012095 218:0.8775248 219:-0.2796635 220:-1.4224657 221:-0.19002196 222:-0.080611005 223:0.35212444 224:-0.77285558 225:-0.19656215 226:-0.24547088 227:0.10761784 228:0.31945151 229:-1.2198124 230:0.27249683 231:0.22491379 232:0.71905884 233:-0.38257135 234:0.14438824 235:-0.35841293 236:-0.85831402 237:0.94452029 238:0.14970499 239:-0.23262248 240:-0.42921286 241:0.48268128 242:1.1574327 243:-0.53859671 244:0.28769555 245:-0.45577769 246:-0.92010385 247:-0.77687886 248:2.5391848 249:-0.71009157 250:-0.95620752 251:0.15686375 
-7.6368731986601894e-06 1:1.5735113 2:-0.21572633 3:-0.27638272 4:1.422535 5:1.0404436 6:0.032464489 7:1.8405799 8:0.26645525 9:0.34276355 10:-1.323131 11:2.2660783 12:1.3582571 13:0.41933688 14:2.1984673 15:-0.74770286 16:0.59948267 17:1.1274198 18:0.74560316 19:0.43242782 20:-0.44506974 21:0.5069675 22:0.86398468 23:1.7562656 24:-1.5120067 25:0.94523337 26:-0.2485344 27:-1.2875435 28:-0.98225895 29:1.789515 30:-0.7504989 31:0.44122017 32:-0.88560074 33:-0.17172433 34:-0.61994553 35:1.3154769 36:-0.38146457 37:-0.98267369 38:-1.366177 39:1.0903969 40:1.2886969 41:2.2040389 42:0.47778954 43:-0.38865253 44:2.5137204 45:-0.49196803 46:1.4614106 47:-0.66048608 48:-0.31604207 49:0.38286979 50:-0.67667247 51:-0.89566848 52:-0.99630072 53:-0.24221652 54:0.74677195 55:1.3247335 56:0.44281036 57:-0.82959114 58:-0.66297059 59:1.0482629 60:0.20810069 61:-0.83555395 62:0.31257318 63:0.95288418 64:0.3373131 65:-0.25544711 66:2.4966915 67:-1.1335549 68:-0.76200119 69:0.4206486 70:0.42555531 71:-0.55810929 72:0.61930966 73:0.87331648 74:-1.3862039 75:0.63665665 76:1.6897981 77:-0.23219136 78:-0.86642269 79:0.97041819 80:-0.94606766 81:-1.0089038 82:0.11658511 83:0.82830485 84:2.1806862 85:-0.25755677 86:-0.054180797 87:0.9179497 88:-0.39175258 89:0.49234729 90:-0.80924141 91:2.0784826 92:-0.67316814 93:0.67790039 94:0.98111023 95:-0.19510738 96:-0.75755783 97:0.39677618 98:0.083434007 99:2.7778751 100:-0.34563068 101:0.14478671 102:1.754229 103:-0.031375524 104:1.22839 105:0.058022059 106:-0.022604392 107:1.7732445 108:0.9716594 109:0.41482272 110:1.715852 111:-0.51568388 112:0.20872254 113:0.31800422 114:-0.30397592 115:-1.1826469 116:-1.1115283 117:0.65436188 118:0.64200032 119:-1.2153629 120:-0.50188505 121:3.9279904 122:-0.80488575 123:0.055028102 124:0.3838451 125:0.90103596 126:0.60344499 127:1.9532158 128:1.5511826 129:1.2373879 130:-0.31912472 131:-0.65638596 132:-0.45206208 133:-0.72340439 134:2.3108897 135:1.0012041 136:0.17078582 137:0.20402911 138:1.1692012 139:0.047193012 140:0.96276595 141:0.50252751 142:1.6900829 143:-1.7560688 144:1.1429053 145:0.097065627 146:-0.80924953 147:1.0143053 148:0.55625813 149:-0.85481822 150:-1.0111213 151:-0.85339282 152:-0.080873034 153:0.18437006 154:-0.28195025 155:-1.7844536 156:0.80412971 157:0.50555988 158:-0.88370772 159:0.73643878 160:-1.9139997 161:-1.5764877 162:0.145162 163:-0.74690779 164:0.82920879 165:-0.57580306 166:0.72060661 167:2.9072495 168:1.7142608 169:-0.33754519 170:-0.73080996 171:0.82403438 172:-0.31237483 173:0.82042054 174:0.30395282 175:-0.81366434 176:-2.0472665 177:-0.9272882 178:-0.087951551 179:-1.2987226 180:2.0954629 181:-0.016924045 182:-0.5416793 183:-0.35709592 184:0.049684154 185:1.8471157 186:0.95588424 187:-0.57641698 188:-0.92131197 189:1.2116256 190:-0.4330853 191:0.12031913 192:0.34275353 193:1.5577478 194:0.24873287 195:1.4549616 196:0.49008591 197:-0.25586061 198:1.2533972 199:0.41505521 200:1.078693 201:1.5750683 202:0.55864055 203:0.19474077 204:1.620555 205:-1.1244211 206:0.98715079 207:0.023231363 208:-0.64048187 209:0.58582314 210:-0.56705672 211:-0.89843476 212:0.7441984 213:1.4647666 214:-0.71985955 215:0.9144762 216:-0.031237052 217:0.0025567679 218:-0.61971633 219:0.36988235 220:-0.25834553 221:1.5285702 222:-0.065692262 223:2.7409286 224:-0.60744468 225:-1.4637175 226:0.16732474 227:0.59649412 228:0.2449568 229:0.2062458 230:0.8844413 231:0.75515252 232:-1.0205237 233:0.51586475 234:-0.14023517 235:-0.64800612 236:-1.4288599 237:-2.5887796 238:-1.4323675 239:0.2747164 240:-0.48212063 241:-0.70531887 242:0.36956023 243:0.3696494 244:-1.1359661 245:-0.361452 246:-0.56979811 247:-0.089587017 248:0.66598229 249:-1.4350728 250:-1.046487 251:0.8761915 
-0.00082409192514640479 1:-0.21126151 2:-0.48831498 3:-0.6031063 4:1.1712099 5:0.48220439 6:-0.31442556 7:0.36853929 8:-1.6040167 9:0.086726543 10:-0.49447767 11:0.69233774 12:0.20282786 13:0.79060167 14:-0.68874418 15:-0.22339097 16:-0.34762851 17:0.17219105 18:-2.0700056 19:1.3673097 20:1.2722643 21:0.87535887 22:0.63245666 23:-0.13195301 24:0.14601673 25:-0.42120857 26:1.125531 27:-0.7907566 28:0.65462681 29:-1.1824719 30:-0.03585889 31:-0.86654097 32:-1.1260643 33:-0.17679319 34:1.9883183 35:-0.17897676 36:1.3374568 37:-1.1040782 38:-0.61418224 39:0.4614121 40:-0.033083785 41:0.90197014 42:-0.66718176 43:-0.10709442 44:1.0082114 45:2.0037531 46:-1.4505349 47:-0.35080175 48:-0.56461289 49:0.48371877 50:-0.64955333 51:-0.92067957 52:-0.82989844 53:-0.79919663 54:0.53953677 55:1.8660772 56:0.47403607 57:0.56677582 58:0.60483355 59:2.2039548 60:-0.31316315 61:-0.22696893 62:-0.070266891 63:0.024816681 64:1.0188463 65:1.6952054 66:0.16798053 67:-1.2992515 68:1.141611 69:-1.3771478 70:0.2915982 71:0.73574527 72:-0.29574903 73:-0.43046868 74:0.63593579 75:0.021112642 76:1.4245485 77:1.2408512 78:-0.9200328 79:1.1511467 80:-0.17904497 81:-0.15245202 82:0.85573732 83:-0.4782427 84:0.48521811 85:-1.6103425 86:-0.12176222 87:1.2500169 88:0.072999251 89:-1.7916604 90:0.24034442 91:-0.40943959 92:-0.50208487 93:-0.28273888 94:-0.68750385 95:-0.25944365 96:-0.84496757 97:0.80597433 98:0.4269214 99:1.4380679 100:0.43634114 101:2.8114404 102:1.741196 103:-1.2206276 104:0.09326981 105:-1.224165 106:0.037640095 107:-0.089416404 108:0.30031731 109:-0.45938 110:0.96030967 111:0.79301886 112:0.64665189 113:1.558287 114:0.20642305 115:0.18945421 116:0.32121469 117:-0.10376438 118:1.6469644 119:0.64170506 120:0.14692774 121:1.3533011 122:-1.0075565 123:0.96238581 124:1.8198148 125:-0.16413532 126:0.56640147 127:1.6004806 128:-0.3002441 129:2.2390109 130:1.4749533 131:0.29008276 132:-0.046072837 133:-0.41802677 134:1.4741327 135:-0.15185073 136:-0.55180408 137:-0.56878992 138:0.42237695 139:0.53691431 140:2.2694968 141:-0.86220443 142:-0.37983003 143:1.280567 144:0.098036491 145:-0.50773997 146:0.26789795 147:0.95153692 148:0.26035647 149:-0.57710665 150:-0.11210502 151:-0.40170116 152:-0.65269003 153:0.60344187 154:-0.62470817 155:-1.9965366 156:1.6025228 157:0.54964016 158:1.4217979 159:0.36167353 160:-0.22487273 161:-0.79282384 162:0.27754251 163:-0.061390207 164:0.81761261 165:0.72809966 166:0.010080558 167:1.3752628 168:-0.97333473 169:-0.26923774 170:-1.1581089 171:1.5729458 172:0.93197111 173:0.43043789 174:0.76244404 175:1.6810712 176:-0.95377325 177:0.29376073 178:-0.15205381 179:0.16848549 180:0.57410299 181:-0.080813101 182:-0.27759237 183:0.8706115 184:0.18426506 185:2.7388049 186:-0.34368539 187:0.17840316 188:0.65049513 189:0.25680156 190:0.57350306 191:0.20398381 192:1.9141178 193:-0.15430289 194:0.95136712 195:1.045006 196:0.38656384 197:0.60888509 198:-0.26619719 199:0.7100356 200:-0.091034791 201:1.0207334 202:2.8280103 203:1.5911223 204:0.37666708 205:1.3316816 206:0.29820838 207:-0.18061013 208:-0.22821567 209:-0.93864564 210:0.23760315 211:0.4330032 212:1.1429482 213:-1.1049781 214:-1.562089 215:0.48405131 216:-0.81096865 217:0.54032402 218:0.22767633 219:0.52186639 220:0.70247495 221:0.88478095 222:-1.7862447 223:0.043619454 224:-1.0615821 225:-1.3423448 226:1.3465766 227:-1.3844711 228:-0.72281062 229:-2.0643615 230:-0.6044478 231:0.44352617 232:-0.51318853 233:0.67721248 234:-0.85776387 235:-0.073573472 236:1.1976491 237:-0.29633618 238:-1.1422623 239:-2.1970432 240:-0.42739669 241:1.1319807 242:-0.1462664 243:-0.79458283 244:-0.0080219657 245:-0.76962707 246:0.74361674 247:-0.57417469 248:0.72492986 249:-0.049933816 250:0.26816683 251:-0.72984173 
-0.00058406687490559551 1:-0.74764048 2:1.6193913 3:-0.11752096 4:-0.33106126 5:-1.3567612 6:2.7503674 7:-0.93785286 8:0.9323987 9:-0.42090507 10:1.6454058 11:-0.53883743 12:0.023828573 13:-1.0788803 14:-0.46241578 15:0.19521885 16:-0.52300547 17:1.8462785 18:-0.097467091 19:-0.87795116 20:-0.8633434 21:1.7019081 22:-0.94449436 23:-1.4100493 24:1.5565284 25:-1.5476146 26:0.30459358 27:-0.30663142 28:0.10696867 29:-0.88517348 30:1.9963566 31:-1.0457124 32:-2.1315614 33:-0.42231291 34:1.9519714 35:-0.65332344 36:-1.5034735 37:2.2659165 38:-0.63069111 39:-1.9362566 40:1.7514304 41:0.96827368 42:1.228266 43:1.0292298 44:-0.72717654 45:-0.79453804 46:0.043609286 47:2.9181075 48:-0.86352408 49:0.25470083 50:-0.70471243 51:-1.0573347 52:0.015887172 53:-0.22769951 54:-0.19157089 55:0.44318644 56:-0.35677606 57:-0.47908593 58:0.89745745 59:-0.14113012 60:-0.65534571 61:0.48057937 62:1.2794898 63:2.4448543 64:0.50759726 65:1.1287301 66:-1.1617287 67:-1.3976055 68:0.43558706 69:1.4571598 70:1.7595137 71:0.2189337 72:-0.24126702 73:0.20056965 74:1.626967 75:0.49821162 76:-0.79160769 77:1.5582829 78:0.46652659 79:-0.931731 80:-0.32904905 81:-1.1316216 82:-0.45029862 83:-0.12775774 84:-0.056227799 85:-1.3728465 86:-0.50978054 87:0.38731517 88:0.052892794 89:-1.923412 90:1.2380243 91:0.55301634 92:3.2041547 93:-1.69193 94:0.99269558 95:-1.761206 96:-0.12777434 97:-1.4327702 98:0.30413461 99:-0.91774436 100:2.7330689 101:-0.91741099 102:-0.44025565 103:-2.445062 104:1.2112485 105:1.3571387 106:0.34980484 107:-1.8378225 108:-1.2808217 109:-0.64188688 110:0.35566352 111:0.21034856 112:-0.35444128 113:0.54803861 114:-0.46898683 115:2.1300545 116:1.2911881 117:1.1112957 118:-0.0035045023 119:1.760926 120:-0.75261582 121:-0.54315499 122:3.3304808 123:-1.3100653 124:-0.83858559 125:0.0065945586 126:0.26326887 127:0.017052547 128:1.3879855 129:-0.0013042167 130:-0.39512637 131:1.948297 132:3.5390332 133:-0.032567211 134:0.52520088 135:3.3926072 136:1.5944004 137:-1.8989877 138:1.2023925 139:-0.32504195 140:-1.3140017 141:0.31117978 142:1.3923316 143:1.2619681 144:0.8693532 145:0.40936366 146:2.5019714 147:-0.45111396 148:1.081951 149:-0.024113953 150:-0.7814534 151:0.30923268 152:-0.37959805 153:-0.23522708 154:2.2472302 155:1.076971 156:-0.38964491 157:4.567255 158:-1.133481 159:-1.7079629 160:0.12941939 161:1.2048135 162:-1.3580207 163:0.22993075 164:1.0625135 165:2.1334428 166:0.84296764 167:-0.69645938 168:-0.58472545 169:1.9266397 170:0.2083807 171:-0.45886443 172:1.3681083 173:-0.99466124 174:-1.0227804 175:-0.28798836 176:-1.0597648 177:-0.95134166 178:3.012789 179:-0.15577802 180:-0.38462158 181:-0.92393862 182:-0.65085867 183:0.66339646 184:0.85193959 185:-0.32837606 186:-0.35682887 187:1.0564087 188:-0.43281529 189:1.420984 190:0.23720894 191:-0.51217076 192:-1.0773345 193:1.9478145 194:0.58661568 195:-0.044983958 196:-1.4998313 197:0.86529237 198:0.12396355 199:-0.11591186 200:-0.55412733 201:-1.2972908 202:-1.1624951 203:0.84548902 204:1.8447287 205:-0.34322988 206:-0.43200336 207:-0.53180915 208:-0.66685827 209:-1.1182434 210:0.04517761 211:-0.094247255 212:-0.72401002 213:1.3439634 214:0.31047922 215:-2.0851132 216:-1.978352 217:-1.1625461 218:0.73391745 219:0.66048295 220:-0.1869049 221:-0.12485141 222:0.32443477 223:-0.99220562 224:1.4402725 225:-0.32496154 226:-1.0473639 227:-1.6131689 228:-1.2385478 229:-0.052559964 230:-2.3536916 231:3.2701236 232:-1.9285782 233:-1.4941299 234:1.2657644 235:3.3195635 236:-0.90885149 237:0.40793539 238:1.2302929 239:-0.54031397 240:-0.43721235 241:-0.065777144 242:-1.7708764 243:-0.54933036 244:0.23763527 245:-0.67369022 246:-1.5735372 247:-0.23333795 248:-1.8989739 249:0.5661037 250:-0.72222706 251:-1.35756 
-0.00041144790868332705 1:0.048165875 2:0.36844508 3:-0.12650708 4:-0.11041591 5:0.043371094 6:1.2864104 7:0.92975221 8:-1.1605723 9:0.32596759 10:-0.8820619 11:0.86680085 12:0.11165092 13:-0.10340577 14:0.89620069 15:0.96499038 16:1.0266364 17:0.53324516 18:-0.17084779 19:1.0560617 20:1.671731 21:2.6757345 22:0.074246057 23:0.18556941 24:-1.1265043 25:1.3846877 26:0.21447248 27:-0.63064324 28:2.1575372 29:-0.65101392 30:-0.93294752 31:-0.78172437 32:0.49202651 33:-0.32868567 34:0.63212431 35:0.034795209 36:-0.4292185 37:-0.48092564 38:-0.76164074 39:-0.71772979 40:-0.21294563 41:0.77361874 42:0.45833533 43:1.2158411 44:0.37186465 45:-0.38741232 46:0.082081671 47:0.36878084 48:-0.42188178 49:-0.89866387 50:0.18320951 51:0.35568003 52:-0.71360495 53:-0.65646889 54:1.552722 55:0.45579022 56:0.68910365 57:-0.5594892 58:-0.026080259 59:1.744926 60:-0.65062405 61:-0.24967305 62:-0.92952889 63:-0.26312419 64:0.4381467 65:1.6884179 66:1.1681074 67:0.21855238 68:0.075144319 69:-0.6120748 70:-0.18639305 71:0.3920132 72:0.53928528 73:0.4977295 74:1.0471653 75:0.94931026 76:2.0998884 77:0.20746455 78:-0.78872688 79:0.43627673 80:-0.04407371 81:-1.1368301 82:2.0473024 83:0.25779477 84:1.3540745 85:0.61339083 86:-0.55434574 87:1.0164108 88:-0.11610324 89:-0.12991434 90:0.4986123 91:0.70039598 92:-1.2524798 93:-0.83230997 94:-0.33089127 95:0.07313239 96:0.28729813 97:0.96105601 98:-0.31291783 99:1.7906357 100:0.59037299 101:-0.35245238 102:0.71915248 103:-0.59734318 104:-0.38270269 105:-0.59329703 106:0.3174719 107:-0.19248247 108:1.2451978 109:-0.40054734 110:1.5104805 111:0.033660567 112:0.92885444 113:-0.37920915 114:-0.26822131 115:0.12660156 116:-0.41388704 117:0.57503437 118:1.3970725 119:-0.60059968 120:-1.3376048 121:0.071148938 122:1.6463971 123:1.41617 124:0.7485891 125:0.1652639 126:1.2083946 127:1.3170209 128:0.0091491681 129:1.9378596 130:0.89305316 131:-0.94617119 132:-0.51813807 133:-0.18343215 134:-1.2010257 135:0.38639396 136:-0.093481529 137:0.33551681 138:0.6532862 139:-1.1315328 140:0.24824757 141:0.073217304 142:0.085147064 143:0.38596194 144:0.38921334 145:0.6967165 146:0.76754863 147:0.055438354 148:-0.77185919 149:-0.69492216 150:-0.83213258 151:-0.18330482 152:0.10403877 153:0.16147498 154:-1.1190615 155:-1.3918311 156:-0.17247752 157:-0.047858434 158:0.038500096 159:0.88048942 160:1.0407356 161:0.94384429 162:0.25772449 163:0.19090446 164:0.60419075 165:-0.23153794 166:0.35051162 167:-0.27988147 168:-0.60796678 169:-0.38184108 170:-1.052465 171:1.3452499 172:0.58900021 173:1.5151499 174:-0.2578166 175:1.1553346 176:-0.26070313 177:0.53166628 178:0.72950813 179:-0.087959082 180:-0.22202775 181:-0.63489189 182:-0.83178708 183:-0.36392224 184:0.63021254 185:1.1242709 186:-1.0450098 187:0.96157313 188:1.1102917 189:-0.11956807 190:0.53549827 191:-0.31490719 192:1.4061842 193:0.99760039 194:-0.90817814 195:1.0513465 196:1.5322565 197:-1.65179 198:0.3026195 199:0.041254627 200:0.68884648 201:0.86570624 202:0.57243369 203:2.4109902 204:0.42140913 205:0.089682051 206:0.65810698 207:0.83828406 208:0.72034936 209:-0.087593959 210:0.3042561 211:0.45525079 212:0.29904237 213:-0.15318891 214:-0.49206835 215:-0.39548875 216:-0.073937518 217:-0.25841631 218:0.78280953 219:0.65598595 220:-1.5296485 221:-0.2294573 222:0.51211484 223:1.4150572 224:-0.57936799 225:-1.5140011 226:-1.1190997 227:-0.020601243 228:-1.042768 229:-0.67688641 230:-0.10537532 231:0.99426686 232:-0.747304 233:0.33289872 234:0.48483805 235:-0.38365169 236:-0.47555649 237:-0.69173089 238:-0.68669306 239:-0.23621227 240:-0.49727128 241:0.37033579 242:-1.1601701 243:0.85361975 244:-0.37914748 245:-0.61983865 246:-0.70256506 247:-1.2814552 248:1.0542569 249:-1.6051283 250:-0.27669119 251:0.17223664 
